<?xml version="1.0"?>
<opencv_storage>
<cascade>
  <stageType>BOOST</stageType>
  <featureType>HAAR</featureType>
  <height>24</height>
  <width>30</width>
  <stageParams>
    <boostType>GAB</boostType>
    <minHitRate>9.9500000476837158e-01</minHitRate>
    <maxFalseAlarm>5.0000000000000000e-01</maxFalseAlarm>
    <weightTrimRate>9.4999998807907104e-01</weightTrimRate>
    <maxDepth>1</maxDepth>
    <maxWeakCount>100</maxWeakCount></stageParams>
  <featureParams>
    <maxCatCount>0</maxCatCount>
    <featSize>1</featSize>
    <mode>BASIC</mode></featureParams>
  <stageNum>15</stageNum>
  <stages>
    <!-- stage 0 -->
    <_>
      <maxWeakCount>5</maxWeakCount>
      <stageThreshold>-1.4866943359375000e+00</stageThreshold>
      <weakClassifiers>
        <_>
          <internalNodes>
            0 -1 61 -1.5560784935951233e-01</internalNodes>
          <leafValues>
            4.9593496322631836e-01 -8.2733815908432007e-01</leafValues></_>
        <_>
          <internalNodes>
            0 -1 55 2.6405206881463528e-04</internalNodes>
          <leafValues>
            2.3108667135238647e-01 -8.7579047679901123e-01</leafValues></_>
        <_>
          <internalNodes>
            0 -1 68 -4.2923493310809135e-04</internalNodes>
          <leafValues>
            3.8662707805633545e-01 -7.0390063524246216e-01</leafValues></_>
        <_>
          <internalNodes>
            0 -1 6 -2.6945367455482483e-02</internalNodes>
          <leafValues>
            5.4199516773223877e-01 -5.8407026529312134e-01</leafValues></_>
        <_>
          <internalNodes>
            0 -1 49 -3.8498212234117091e-04</internalNodes>
          <leafValues>
            4.1387745738029480e-01 -7.7578413486480713e-01</leafValues></_></weakClassifiers></_>
    <!-- stage 1 -->
    <_>
      <maxWeakCount>3</maxWeakCount>
      <stageThreshold>-5.8401310443878174e-01</stageThreshold>
      <weakClassifiers>
        <_>
          <internalNodes>
            0 -1 35 -6.4352050423622131e-02</internalNodes>
          <leafValues>
            5.0505049526691437e-02 -8.8177341222763062e-01</leafValues></_>
        <_>
          <internalNodes>
            0 -1 20 6.6311629489064217e-03</internalNodes>
          <leafValues>
            1.5181891620159149e-01 -9.1586470603942871e-01</leafValues></_>
        <_>
          <internalNodes>
            0 -1 2 -9.7316462779417634e-04</internalNodes>
          <leafValues>
            -7.8633707761764526e-01 2.8580135107040405e-01</leafValues></_></weakClassifiers></_>
    <!-- stage 2 -->
    <_>
      <maxWeakCount>5</maxWeakCount>
      <stageThreshold>-1.4240419864654541e+00</stageThreshold>
      <weakClassifiers>
        <_>
          <internalNodes>
            0 -1 30 -2.9474418610334396e-02</internalNodes>
          <leafValues>
            8.6046510934829712e-01 -5.7541900873184204e-01</leafValues></_>
        <_>
          <internalNodes>
            0 -1 34 -2.9658256098628044e-03</internalNodes>
          <leafValues>
            -8.2498323917388916e-01 3.1923934817314148e-01</leafValues></_>
        <_>
          <internalNodes>
            0 -1 14 -1.7211984959430993e-04</internalNodes>
          <leafValues>
            4.6224492788314819e-01 -6.0400885343551636e-01</leafValues></_>
        <_>
          <internalNodes>
            0 -1 18 1.7885456327348948e-04</internalNodes>
          <leafValues>
            2.7343574166297913e-01 -9.8544609546661377e-01</leafValues></_>
        <_>
          <internalNodes>
            0 -1 7 -1.2339701876044273e-02</internalNodes>
          <leafValues>
            3.0693337321281433e-01 -7.6332890987396240e-01</leafValues></_></weakClassifiers></_>
    <!-- stage 3 -->
    <_>
      <maxWeakCount>6</maxWeakCount>
      <stageThreshold>-5.2111464738845825e-01</stageThreshold>
      <weakClassifiers>
        <_>
          <internalNodes>
            0 -1 48 -5.1560360938310623e-02</internalNodes>
          <leafValues>
            9.5348834991455078e-01 -5.8659219741821289e-01</leafValues></_>
        <_>
          <internalNodes>
            0 -1 21 6.6577014513313770e-04</internalNodes>
          <leafValues>
            2.5833418965339661e-01 -9.2357069253921509e-01</leafValues></_>
        <_>
          <internalNodes>
            0 -1 52 1.3502590358257294e-02</internalNodes>
          <leafValues>
            -3.5891354084014893e-01 7.6384788751602173e-01</leafValues></_>
        <_>
          <internalNodes>
            0 -1 32 3.4827571653295308e-05</internalNodes>
          <leafValues>
            -7.9433327913284302e-01 3.7088978290557861e-01</leafValues></_>
        <_>
          <internalNodes>
            0 -1 37 1.8344813724979758e-04</internalNodes>
          <leafValues>
            3.0846202373504639e-01 -8.9358228445053101e-01</leafValues></_>
        <_>
          <internalNodes>
            0 -1 45 2.4440431967377663e-02</internalNodes>
          <leafValues>
            -4.2289066314697266e-01 7.3121106624603271e-01</leafValues></_></weakClassifiers></_>
    <!-- stage 4 -->
    <_>
      <maxWeakCount>5</maxWeakCount>
      <stageThreshold>-7.5606405735015869e-01</stageThreshold>
      <weakClassifiers>
        <_>
          <internalNodes>
            0 -1 53 1.4842292293906212e-02</internalNodes>
          <leafValues>
            -6.4814811944961548e-01 5.3246754407882690e-01</leafValues></_>
        <_>
          <internalNodes>
            0 -1 31 -9.0822126367129385e-05</internalNodes>
          <leafValues>
            -8.4660041332244873e-01 2.5942137837409973e-01</leafValues></_>
        <_>
          <internalNodes>
            0 -1 25 -4.7300480306148529e-02</internalNodes>
          <leafValues>
            7.3611974716186523e-01 -4.0966293215751648e-01</leafValues></_>
        <_>
          <internalNodes>
            0 -1 72 -1.2584934665937908e-05</internalNodes>
          <leafValues>
            -7.4139511585235596e-01 3.6823362112045288e-01</leafValues></_>
        <_>
          <internalNodes>
            0 -1 38 2.0101960748434067e-02</internalNodes>
          <leafValues>
            -3.2590797543525696e-01 8.3073353767395020e-01</leafValues></_></weakClassifiers></_>
    <!-- stage 5 -->
    <_>
      <maxWeakCount>5</maxWeakCount>
      <stageThreshold>-9.4261908531188965e-01</stageThreshold>
      <weakClassifiers>
        <_>
          <internalNodes>
            0 -1 65 -7.8538194298744202e-02</internalNodes>
          <leafValues>
            1.1111111193895340e-01 -7.8242677450180054e-01</leafValues></_>
        <_>
          <internalNodes>
            0 -1 21 -5.3963565733283758e-04</internalNodes>
          <leafValues>
            -9.6122997999191284e-01 2.1652096509933472e-01</leafValues></_>
        <_>
          <internalNodes>
            0 -1 71 1.5627141692675650e-04</internalNodes>
          <leafValues>
            2.0108416676521301e-01 -8.5929727554321289e-01</leafValues></_>
        <_>
          <internalNodes>
            0 -1 0 -1.6108615091070533e-04</internalNodes>
          <leafValues>
            -7.6008623838424683e-01 3.0117195844650269e-01</leafValues></_>
        <_>
          <internalNodes>
            0 -1 59 -3.3311323932139203e-05</internalNodes>
          <leafValues>
            3.4913238883018494e-01 -7.5231838226318359e-01</leafValues></_></weakClassifiers></_>
    <!-- stage 6 -->
    <_>
      <maxWeakCount>3</maxWeakCount>
      <stageThreshold>-7.1955621242523193e-01</stageThreshold>
      <weakClassifiers>
        <_>
          <internalNodes>
            0 -1 60 -6.6676543792709708e-04</internalNodes>
          <leafValues>
            -9.1666668653488159e-01 3.3492822200059891e-02</leafValues></_>
        <_>
          <internalNodes>
            0 -1 46 2.0133535144850612e-04</internalNodes>
          <leafValues>
            1.5740440785884857e-01 -9.5737671852111816e-01</leafValues></_>
        <_>
          <internalNodes>
            0 -1 28 9.1083528241142631e-04</internalNodes>
          <leafValues>
            2.2030693292617798e-01 -9.1045343875885010e-01</leafValues></_></weakClassifiers></_>
    <!-- stage 7 -->
    <_>
      <maxWeakCount>6</maxWeakCount>
      <stageThreshold>-1.4770809412002563e+00</stageThreshold>
      <weakClassifiers>
        <_>
          <internalNodes>
            0 -1 29 -1.0327452421188354e-01</internalNodes>
          <leafValues>
            9.3548387289047241e-01 -5.3513514995574951e-01</leafValues></_>
        <_>
          <internalNodes>
            0 -1 3 2.7150894311489537e-05</internalNodes>
          <leafValues>
            -7.3062503337860107e-01 3.7389335036277771e-01</leafValues></_>
        <_>
          <internalNodes>
            0 -1 19 -5.8326779253548011e-05</internalNodes>
          <leafValues>
            2.4821713566780090e-01 -9.0082848072052002e-01</leafValues></_>
        <_>
          <internalNodes>
            0 -1 33 -4.7008000314235687e-02</internalNodes>
          <leafValues>
            5.9536647796630859e-01 -4.4512957334518433e-01</leafValues></_>
        <_>
          <internalNodes>
            0 -1 43 -2.6200772845186293e-04</internalNodes>
          <leafValues>
            -8.1778162717819214e-01 2.8170323371887207e-01</leafValues></_>
        <_>
          <internalNodes>
            0 -1 47 2.8550114482641220e-02</internalNodes>
          <leafValues>
            -2.9611155390739441e-01 7.4287241697311401e-01</leafValues></_></weakClassifiers></_>
    <!-- stage 8 -->
    <_>
      <maxWeakCount>4</maxWeakCount>
      <stageThreshold>-8.6807304620742798e-01</stageThreshold>
      <weakClassifiers>
        <_>
          <internalNodes>
            0 -1 16 5.1162962336093187e-04</internalNodes>
          <leafValues>
            -8.6607140302658081e-01 1.4124293625354767e-01</leafValues></_>
        <_>
          <internalNodes>
            0 -1 63 -2.6536310906521976e-04</internalNodes>
          <leafValues>
            3.1563121080398560e-01 -7.5577878952026367e-01</leafValues></_>
        <_>
          <internalNodes>
            0 -1 75 -1.2360344408079982e-03</internalNodes>
          <leafValues>
            2.5112381577491760e-01 -8.6466377973556519e-01</leafValues></_>
        <_>
          <internalNodes>
            0 -1 12 -2.4398923414992169e-05</internalNodes>
          <leafValues>
            5.8937454223632813e-01 -4.6028336882591248e-01</leafValues></_></weakClassifiers></_>
    <!-- stage 9 -->
    <_>
      <maxWeakCount>7</maxWeakCount>
      <stageThreshold>-1.1251988410949707e+00</stageThreshold>
      <weakClassifiers>
        <_>
          <internalNodes>
            0 -1 15 5.7956449687480927e-02</internalNodes>
          <leafValues>
            -6.7857140302658081e-01 1.7355372011661530e-01</leafValues></_>
        <_>
          <internalNodes>
            0 -1 26 -2.8421745810192078e-05</internalNodes>
          <leafValues>
            2.9650327563285828e-01 -7.1094584465026855e-01</leafValues></_>
        <_>
          <internalNodes>
            0 -1 9 -1.0432744398713112e-02</internalNodes>
          <leafValues>
            4.3390259146690369e-01 -5.4642993211746216e-01</leafValues></_>
        <_>
          <internalNodes>
            0 -1 17 1.0432557610329241e-04</internalNodes>
          <leafValues>
            -5.6694573163986206e-01 3.6031976342201233e-01</leafValues></_>
        <_>
          <internalNodes>
            0 -1 67 -4.6256638597697020e-04</internalNodes>
          <leafValues>
            3.2674711942672729e-01 -6.9559103250503540e-01</leafValues></_>
        <_>
          <internalNodes>
            0 -1 24 2.7637999504804611e-02</internalNodes>
          <leafValues>
            -3.4356352686882019e-01 7.1634304523468018e-01</leafValues></_>
        <_>
          <internalNodes>
            0 -1 51 3.9194878190755844e-03</internalNodes>
          <leafValues>
            -3.8488006591796875e-01 7.7322059869766235e-01</leafValues></_></weakClassifiers></_>
    <!-- stage 10 -->
    <_>
      <maxWeakCount>5</maxWeakCount>
      <stageThreshold>-9.4927227497100830e-01</stageThreshold>
      <weakClassifiers>
        <_>
          <internalNodes>
            0 -1 56 -3.5754632204771042e-02</internalNodes>
          <leafValues>
            7.5000000000000000e-01 -5.5124652385711670e-01</leafValues></_>
        <_>
          <internalNodes>
            0 -1 23 -3.3062772126868367e-04</internalNodes>
          <leafValues>
            2.3286500573158264e-01 -7.6676636934280396e-01</leafValues></_>
        <_>
          <internalNodes>
            0 -1 62 2.1701878722524270e-05</internalNodes>
          <leafValues>
            -4.4421502947807312e-01 4.7555935382843018e-01</leafValues></_>
        <_>
          <internalNodes>
            0 -1 69 -2.7252455765847117e-05</internalNodes>
          <leafValues>
            4.3188413977622986e-01 -4.3811663985252380e-01</leafValues></_>
        <_>
          <internalNodes>
            0 -1 8 1.2343457456154283e-05</internalNodes>
          <leafValues>
            -5.3616654872894287e-01 3.8107153773307800e-01</leafValues></_></weakClassifiers></_>
    <!-- stage 11 -->
    <_>
      <maxWeakCount>6</maxWeakCount>
      <stageThreshold>-8.6115038394927979e-01</stageThreshold>
      <weakClassifiers>
        <_>
          <internalNodes>
            0 -1 50 -2.7278507128357887e-02</internalNodes>
          <leafValues>
            8.6666667461395264e-01 -5.2560645341873169e-01</leafValues></_>
        <_>
          <internalNodes>
            0 -1 13 4.6957499580457807e-04</internalNodes>
          <leafValues>
            2.3833411931991577e-01 -7.1030563116073608e-01</leafValues></_>
        <_>
          <internalNodes>
            0 -1 10 1.0073692537844181e-02</internalNodes>
          <leafValues>
            2.6039141416549683e-01 -7.6110178232192993e-01</leafValues></_>
        <_>
          <internalNodes>
            0 -1 54 -1.7533075879327953e-04</internalNodes>
          <leafValues>
            2.9964071512222290e-01 -6.9255799055099487e-01</leafValues></_>
        <_>
          <internalNodes>
            0 -1 36 -8.3951987326145172e-03</internalNodes>
          <leafValues>
            -7.9922586679458618e-01 2.2678309679031372e-01</leafValues></_>
        <_>
          <internalNodes>
            0 -1 58 5.0162943080067635e-04</internalNodes>
          <leafValues>
            -3.3468431234359741e-01 6.8417602777481079e-01</leafValues></_></weakClassifiers></_>
    <!-- stage 12 -->
    <_>
      <maxWeakCount>5</maxWeakCount>
      <stageThreshold>-9.8766559362411499e-01</stageThreshold>
      <weakClassifiers>
        <_>
          <internalNodes>
            0 -1 5 -4.1493095457553864e-02</internalNodes>
          <leafValues>
            2.0370370149612427e-01 -6.5187710523605347e-01</leafValues></_>
        <_>
          <internalNodes>
            0 -1 41 -7.9896561801433563e-02</internalNodes>
          <leafValues>
            8.2411944866180420e-01 -3.0858406424522400e-01</leafValues></_>
        <_>
          <internalNodes>
            0 -1 22 -4.9118027091026306e-03</internalNodes>
          <leafValues>
            -9.1959798336029053e-01 2.1920904517173767e-01</leafValues></_>
        <_>
          <internalNodes>
            0 -1 44 -1.7541195848025382e-04</internalNodes>
          <leafValues>
            -7.6114094257354736e-01 2.4258887767791748e-01</leafValues></_>
        <_>
          <internalNodes>
            0 -1 40 2.2309690713882446e-02</internalNodes>
          <leafValues>
            -3.4085330367088318e-01 6.4583444595336914e-01</leafValues></_></weakClassifiers></_>
    <!-- stage 13 -->
    <_>
      <maxWeakCount>6</maxWeakCount>
      <stageThreshold>-1.2361860275268555e+00</stageThreshold>
      <weakClassifiers>
        <_>
          <internalNodes>
            0 -1 74 -3.1586358090862632e-04</internalNodes>
          <leafValues>
            -7.1770332753658295e-02 -8.0208331346511841e-01</leafValues></_>
        <_>
          <internalNodes>
            0 -1 73 -1.4311440754681826e-03</internalNodes>
          <leafValues>
            1.9563220441341400e-01 -7.3665875196456909e-01</leafValues></_>
        <_>
          <internalNodes>
            0 -1 64 -3.0411487387027591e-05</internalNodes>
          <leafValues>
            2.2139202058315277e-01 -8.1145209074020386e-01</leafValues></_>
        <_>
          <internalNodes>
            0 -1 4 -2.1692124009132385e-01</internalNodes>
          <leafValues>
            4.6968269348144531e-01 -3.9573130011558533e-01</leafValues></_>
        <_>
          <internalNodes>
            0 -1 66 -9.2279457021504641e-05</internalNodes>
          <leafValues>
            3.5689893364906311e-01 -5.1389354467391968e-01</leafValues></_>
        <_>
          <internalNodes>
            0 -1 57 3.0423208954744041e-04</internalNodes>
          <leafValues>
            2.2592800855636597e-01 -8.1420046091079712e-01</leafValues></_></weakClassifiers></_>
    <!-- stage 14 -->
    <_>
      <maxWeakCount>6</maxWeakCount>
      <stageThreshold>-7.9901355504989624e-01</stageThreshold>
      <weakClassifiers>
        <_>
          <internalNodes>
            0 -1 42 -7.4146143160760403e-03</internalNodes>
          <leafValues>
            4.3999999761581421e-01 -5.4415953159332275e-01</leafValues></_>
        <_>
          <internalNodes>
            0 -1 1 6.5652641933411360e-04</internalNodes>
          <leafValues>
            -5.8151835203170776e-01 2.8127273917198181e-01</leafValues></_>
        <_>
          <internalNodes>
            0 -1 70 -9.7643112530931830e-04</internalNodes>
          <leafValues>
            -8.4469723701477051e-01 1.7857566475868225e-01</leafValues></_>
        <_>
          <internalNodes>
            0 -1 27 8.9105888037011027e-04</internalNodes>
          <leafValues>
            2.3228788375854492e-01 -6.3324642181396484e-01</leafValues></_>
        <_>
          <internalNodes>
            0 -1 11 3.6000441759824753e-03</internalNodes>
          <leafValues>
            2.3360991477966309e-01 -6.9913697242736816e-01</leafValues></_>
        <_>
          <internalNodes>
            0 -1 39 -7.1812838315963745e-02</internalNodes>
          <leafValues>
            7.3572182655334473e-01 -2.4785333871841431e-01</leafValues></_></weakClassifiers></_></stages>
  <features>
    <_>
      <rects>
        <_>
          0 0 3 8 -1.</_>
        <_>
          1 0 1 8 3.</_></rects>
      <tilted>0</tilted></_>
    <_>
      <rects>
        <_>
          0 0 21 2 -1.</_>
        <_>
          7 0 7 2 3.</_></rects>
      <tilted>0</tilted></_>
    <_>
      <rects>
        <_>
          0 1 1 15 -1.</_>
        <_>
          0 6 1 5 3.</_></rects>
      <tilted>0</tilted></_>
    <_>
      <rects>
        <_>
          0 1 6 2 -1.</_>
        <_>
          2 1 2 2 3.</_></rects>
      <tilted>0</tilted></_>
    <_>
      <rects>
        <_>
          0 5 24 19 -1.</_>
        <_>
          12 5 12 19 2.</_></rects>
      <tilted>0</tilted></_>
    <_>
      <rects>
        <_>
          0 7 10 15 -1.</_>
        <_>
          5 7 5 15 2.</_></rects>
      <tilted>0</tilted></_>
    <_>
      <rects>
        <_>
          0 8 20 8 -1.</_>
        <_>
          10 8 10 8 2.</_></rects>
      <tilted>0</tilted></_>
    <_>
      <rects>
        <_>
          0 9 18 14 -1.</_>
        <_>
          9 9 9 14 2.</_></rects>
      <tilted>0</tilted></_>
    <_>
      <rects>
        <_>
          0 21 1 3 -1.</_>
        <_>
          0 22 1 1 3.</_></rects>
      <tilted>0</tilted></_>
    <_>
      <rects>
        <_>
          0 22 24 1 -1.</_>
        <_>
          12 22 12 1 2.</_></rects>
      <tilted>0</tilted></_>
    <_>
      <rects>
        <_>
          1 1 21 3 -1.</_>
        <_>
          8 1 7 3 3.</_></rects>
      <tilted>0</tilted></_>
    <_>
      <rects>
        <_>
          1 5 1 18 -1.</_>
        <_>
          1 11 1 6 3.</_></rects>
      <tilted>0</tilted></_>
    <_>
      <rects>
        <_>
          1 6 2 1 -1.</_>
        <_>
          2 6 1 1 2.</_></rects>
      <tilted>0</tilted></_>
    <_>
      <rects>
        <_>
          2 17 6 7 -1.</_>
        <_>
          4 17 2 7 3.</_></rects>
      <tilted>0</tilted></_>
    <_>
      <rects>
        <_>
          2 22 2 2 -1.</_>
        <_>
          2 23 2 1 2.</_></rects>
      <tilted>0</tilted></_>
    <_>
      <rects>
        <_>
          3 0 20 12 -1.</_>
        <_>
          3 4 20 4 3.</_></rects>
      <tilted>0</tilted></_>
    <_>
      <rects>
        <_>
          3 1 12 2 -1.</_>
        <_>
          9 1 6 2 2.</_></rects>
      <tilted>0</tilted></_>
    <_>
      <rects>
        <_>
          3 2 4 3 -1.</_>
        <_>
          5 2 2 3 2.</_></rects>
      <tilted>0</tilted></_>
    <_>
      <rects>
        <_>
          3 4 3 2 -1.</_>
        <_>
          4 4 1 2 3.</_></rects>
      <tilted>0</tilted></_>
    <_>
      <rects>
        <_>
          3 16 3 4 -1.</_>
        <_>
          3 18 3 2 2.</_></rects>
      <tilted>0</tilted></_>
    <_>
      <rects>
        <_>
          4 1 26 2 -1.</_>
        <_>
          17 1 13 2 2.</_></rects>
      <tilted>0</tilted></_>
    <_>
      <rects>
        <_>
          4 3 3 4 -1.</_>
        <_>
          5 3 1 4 3.</_></rects>
      <tilted>0</tilted></_>
    <_>
      <rects>
        <_>
          4 3 1 10 -1.</_>
        <_>
          4 8 1 5 2.</_></rects>
      <tilted>0</tilted></_>
    <_>
      <rects>
        <_>
          4 6 3 6 -1.</_>
        <_>
          4 9 3 3 2.</_></rects>
      <tilted>0</tilted></_>
    <_>
      <rects>
        <_>
          4 6 12 11 -1.</_>
        <_>
          8 6 4 11 3.</_></rects>
      <tilted>0</tilted></_>
    <_>
      <rects>
        <_>
          4 7 18 7 -1.</_>
        <_>
          10 7 6 7 3.</_></rects>
      <tilted>0</tilted></_>
    <_>
      <rects>
        <_>
          4 18 3 6 -1.</_>
        <_>
          4 21 3 3 2.</_></rects>
      <tilted>0</tilted></_>
    <_>
      <rects>
        <_>
          5 0 12 2 -1.</_>
        <_>
          9 0 4 2 3.</_></rects>
      <tilted>0</tilted></_>
    <_>
      <rects>
        <_>
          5 1 4 2 -1.</_>
        <_>
          7 1 2 2 2.</_></rects>
      <tilted>0</tilted></_>
    <_>
      <rects>
        <_>
          5 8 18 5 -1.</_>
        <_>
          11 8 6 5 3.</_></rects>
      <tilted>0</tilted></_>
    <_>
      <rects>
        <_>
          5 9 13 6 -1.</_>
        <_>
          5 11 13 2 3.</_></rects>
      <tilted>0</tilted></_>
    <_>
      <rects>
        <_>
          6 2 3 1 -1.</_>
        <_>
          7 2 1 1 3.</_></rects>
      <tilted>0</tilted></_>
    <_>
      <rects>
        <_>
          6 2 4 1 -1.</_>
        <_>
          8 2 2 1 2.</_></rects>
      <tilted>0</tilted></_>
    <_>
      <rects>
        <_>
          6 10 24 14 -1.</_>
        <_>
          6 10 12 7 2.</_>
        <_>
          18 17 12 7 2.</_></rects>
      <tilted>0</tilted></_>
    <_>
      <rects>
        <_>
          7 0 14 2 -1.</_>
        <_>
          14 0 7 2 2.</_></rects>
      <tilted>0</tilted></_>
    <_>
      <rects>
        <_>
          7 2 19 12 -1.</_>
        <_>
          7 8 19 6 2.</_></rects>
      <tilted>0</tilted></_>
    <_>
      <rects>
        <_>
          8 0 22 1 -1.</_>
        <_>
          19 0 11 1 2.</_></rects>
      <tilted>0</tilted></_>
    <_>
      <rects>
        <_>
          8 2 3 1 -1.</_>
        <_>
          9 2 1 1 3.</_></rects>
      <tilted>0</tilted></_>
    <_>
      <rects>
        <_>
          8 8 9 9 -1.</_>
        <_>
          11 8 3 9 3.</_></rects>
      <tilted>0</tilted></_>
    <_>
      <rects>
        <_>
          8 8 12 7 -1.</_>
        <_>
          12 8 4 7 3.</_></rects>
      <tilted>0</tilted></_>
    <_>
      <rects>
        <_>
          8 8 12 9 -1.</_>
        <_>
          12 8 4 9 3.</_></rects>
      <tilted>0</tilted></_>
    <_>
      <rects>
        <_>
          8 8 12 13 -1.</_>
        <_>
          12 8 4 13 3.</_></rects>
      <tilted>0</tilted></_>
    <_>
      <rects>
        <_>
          8 10 12 3 -1.</_>
        <_>
          8 11 12 1 3.</_></rects>
      <tilted>0</tilted></_>
    <_>
      <rects>
        <_>
          9 0 3 3 -1.</_>
        <_>
          10 0 1 3 3.</_></rects>
      <tilted>0</tilted></_>
    <_>
      <rects>
        <_>
          9 0 9 2 -1.</_>
        <_>
          12 0 3 2 3.</_></rects>
      <tilted>0</tilted></_>
    <_>
      <rects>
        <_>
          9 0 10 9 -1.</_>
        <_>
          9 3 10 3 3.</_></rects>
      <tilted>0</tilted></_>
    <_>
      <rects>
        <_>
          9 1 3 2 -1.</_>
        <_>
          10 1 1 2 3.</_></rects>
      <tilted>0</tilted></_>
    <_>
      <rects>
        <_>
          9 7 12 11 -1.</_>
        <_>
          13 7 4 11 3.</_></rects>
      <tilted>0</tilted></_>
    <_>
      <rects>
        <_>
          10 6 10 9 -1.</_>
        <_>
          10 9 10 3 3.</_></rects>
      <tilted>0</tilted></_>
    <_>
      <rects>
        <_>
          10 15 1 6 -1.</_>
        <_>
          10 18 1 3 2.</_></rects>
      <tilted>0</tilted></_>
    <_>
      <rects>
        <_>
          11 2 6 12 -1.</_>
        <_>
          13 2 2 12 3.</_></rects>
      <tilted>0</tilted></_>
    <_>
      <rects>
        <_>
          12 3 6 12 -1.</_>
        <_>
          14 3 2 12 3.</_></rects>
      <tilted>0</tilted></_>
    <_>
      <rects>
        <_>
          12 6 10 8 -1.</_>
        <_>
          12 6 5 4 2.</_>
        <_>
          17 10 5 4 2.</_></rects>
      <tilted>0</tilted></_>
    <_>
      <rects>
        <_>
          12 10 6 9 -1.</_>
        <_>
          12 13 6 3 3.</_></rects>
      <tilted>0</tilted></_>
    <_>
      <rects>
        <_>
          13 0 12 1 -1.</_>
        <_>
          19 0 6 1 2.</_></rects>
      <tilted>0</tilted></_>
    <_>
      <rects>
        <_>
          13 0 16 2 -1.</_>
        <_>
          21 0 8 2 2.</_></rects>
      <tilted>0</tilted></_>
    <_>
      <rects>
        <_>
          13 6 6 18 -1.</_>
        <_>
          13 6 3 9 2.</_>
        <_>
          16 15 3 9 2.</_></rects>
      <tilted>0</tilted></_>
    <_>
      <rects>
        <_>
          13 20 2 2 -1.</_>
        <_>
          13 21 2 1 2.</_></rects>
      <tilted>0</tilted></_>
    <_>
      <rects>
        <_>
          15 8 3 2 -1.</_>
        <_>
          16 8 1 2 3.</_></rects>
      <tilted>0</tilted></_>
    <_>
      <rects>
        <_>
          18 1 6 1 -1.</_>
        <_>
          21 1 3 1 2.</_></rects>
      <tilted>0</tilted></_>
    <_>
      <rects>
        <_>
          19 1 4 1 -1.</_>
        <_>
          21 1 2 1 2.</_></rects>
      <tilted>0</tilted></_>
    <_>
      <rects>
        <_>
          20 2 9 22 -1.</_>
        <_>
          20 13 9 11 2.</_></rects>
      <tilted>0</tilted></_>
    <_>
      <rects>
        <_>
          21 1 1 2 -1.</_>
        <_>
          21 2 1 1 2.</_></rects>
      <tilted>0</tilted></_>
    <_>
      <rects>
        <_>
          22 1 4 3 -1.</_>
        <_>
          24 1 2 3 2.</_></rects>
      <tilted>0</tilted></_>
    <_>
      <rects>
        <_>
          22 1 8 1 -1.</_>
        <_>
          26 1 4 1 2.</_></rects>
      <tilted>0</tilted></_>
    <_>
      <rects>
        <_>
          22 8 7 16 -1.</_>
        <_>
          22 16 7 8 2.</_></rects>
      <tilted>0</tilted></_>
    <_>
      <rects>
        <_>
          24 6 4 1 -1.</_>
        <_>
          26 6 2 1 2.</_></rects>
      <tilted>0</tilted></_>
    <_>
      <rects>
        <_>
          24 9 6 6 -1.</_>
        <_>
          24 12 6 3 2.</_></rects>
      <tilted>0</tilted></_>
    <_>
      <rects>
        <_>
          24 15 1 6 -1.</_>
        <_>
          24 18 1 3 2.</_></rects>
      <tilted>0</tilted></_>
    <_>
      <rects>
        <_>
          26 0 3 1 -1.</_>
        <_>
          27 0 1 1 3.</_></rects>
      <tilted>0</tilted></_>
    <_>
      <rects>
        <_>
          26 10 2 5 -1.</_>
        <_>
          27 10 1 5 2.</_></rects>
      <tilted>0</tilted></_>
    <_>
      <rects>
        <_>
          27 0 2 6 -1.</_>
        <_>
          28 0 1 6 2.</_></rects>
      <tilted>0</tilted></_>
    <_>
      <rects>
        <_>
          27 2 3 6 -1.</_>
        <_>
          28 2 1 6 3.</_></rects>
      <tilted>0</tilted></_>
    <_>
      <rects>
        <_>
          27 16 3 8 -1.</_>
        <_>
          27 20 3 4 2.</_></rects>
      <tilted>0</tilted></_>
    <_>
      <rects>
        <_>
          28 0 2 7 -1.</_>
        <_>
          29 0 1 7 2.</_></rects>
      <tilted>0</tilted></_>
    <_>
      <rects>
        <_>
          28 11 2 10 -1.</_>
        <_>
          28 16 2 5 2.</_></rects>
      <tilted>0</tilted></_></features></cascade>
</opencv_storage>
