<?xml version="1.0"?>
<opencv_storage>
<cascade>
  <stageType>BOOST</stageType>
  <featureType>HAAR</featureType>
  <height>24</height>
  <width>32</width>
  <stageParams>
    <boostType>GAB</boostType>
    <minHitRate>9.9500000476837158e-01</minHitRate>
    <maxFalseAlarm>5.0000000000000000e-01</maxFalseAlarm>
    <weightTrimRate>9.4999998807907104e-01</weightTrimRate>
    <maxDepth>1</maxDepth>
    <maxWeakCount>100</maxWeakCount></stageParams>
  <featureParams>
    <maxCatCount>0</maxCatCount>
    <featSize>1</featSize>
    <mode>BASIC</mode></featureParams>
  <stageNum>19</stageNum>
  <stages>
    <!-- stage 0 -->
    <_>
      <maxWeakCount>6</maxWeakCount>
      <stageThreshold>-1.5872377157211304e+00</stageThreshold>
      <weakClassifiers>
        <_>
          <internalNodes>
            0 -1 4 5.5109322071075439e-01</internalNodes>
          <leafValues>
            -9.0342050790786743e-01 1.1475409567356110e-01</leafValues></_>
        <_>
          <internalNodes>
            0 -1 69 -2.9548473656177521e-02</internalNodes>
          <leafValues>
            7.8377538919448853e-01 -5.7888454198837280e-01</leafValues></_>
        <_>
          <internalNodes>
            0 -1 105 -5.7356422767043114e-03</internalNodes>
          <leafValues>
            -8.8909810781478882e-01 2.8530254960060120e-01</leafValues></_>
        <_>
          <internalNodes>
            0 -1 63 1.8669871496967971e-04</internalNodes>
          <leafValues>
            2.9759517312049866e-01 -8.5135167837142944e-01</leafValues></_>
        <_>
          <internalNodes>
            0 -1 110 -3.6587024806067348e-04</internalNodes>
          <leafValues>
            -9.0780031681060791e-01 2.4954174458980560e-01</leafValues></_>
        <_>
          <internalNodes>
            0 -1 28 7.0867137983441353e-03</internalNodes>
          <leafValues>
            2.3702856898307800e-01 -8.5310524702072144e-01</leafValues></_></weakClassifiers></_>
    <!-- stage 1 -->
    <_>
      <maxWeakCount>5</maxWeakCount>
      <stageThreshold>-1.4822750091552734e+00</stageThreshold>
      <weakClassifiers>
        <_>
          <internalNodes>
            0 -1 59 -2.6456691324710846e-02</internalNodes>
          <leafValues>
            6.9230771064758301e-01 -8.4586817026138306e-01</leafValues></_>
        <_>
          <internalNodes>
            0 -1 6 4.2848867177963257e-01</internalNodes>
          <leafValues>
            -7.1174657344818115e-01 4.1196912527084351e-01</leafValues></_>
        <_>
          <internalNodes>
            0 -1 1 -6.6610023379325867e-02</internalNodes>
          <leafValues>
            5.4580217599868774e-01 -4.6163499355316162e-01</leafValues></_>
        <_>
          <internalNodes>
            0 -1 87 -1.7152231885120273e-04</internalNodes>
          <leafValues>
            3.1789290904998779e-01 -7.6959216594696045e-01</leafValues></_>
        <_>
          <internalNodes>
            0 -1 114 -5.2956074796384200e-05</internalNodes>
          <leafValues>
            -7.4633109569549561e-01 2.9912969470024109e-01</leafValues></_></weakClassifiers></_>
    <!-- stage 2 -->
    <_>
      <maxWeakCount>6</maxWeakCount>
      <stageThreshold>-1.6624186038970947e+00</stageThreshold>
      <weakClassifiers>
        <_>
          <internalNodes>
            0 -1 49 -3.5003125667572021e-02</internalNodes>
          <leafValues>
            5.2727270126342773e-01 -8.6050897836685181e-01</leafValues></_>
        <_>
          <internalNodes>
            0 -1 48 4.5396439731121063e-02</internalNodes>
          <leafValues>
            -7.5137448310852051e-01 2.1314337849617004e-01</leafValues></_>
        <_>
          <internalNodes>
            0 -1 37 2.6513060554862022e-02</internalNodes>
          <leafValues>
            -3.6757549643516541e-01 7.4288368225097656e-01</leafValues></_>
        <_>
          <internalNodes>
            0 -1 44 1.7931222915649414e-02</internalNodes>
          <leafValues>
            -2.6278492808341980e-01 8.4283530712127686e-01</leafValues></_>
        <_>
          <internalNodes>
            0 -1 91 3.1913086422719061e-04</internalNodes>
          <leafValues>
            2.9888632893562317e-01 -9.0008193254470825e-01</leafValues></_>
        <_>
          <internalNodes>
            0 -1 91 -3.6686344537883997e-04</internalNodes>
          <leafValues>
            -7.9862147569656372e-01 2.8093895316123962e-01</leafValues></_></weakClassifiers></_>
    <!-- stage 3 -->
    <_>
      <maxWeakCount>5</maxWeakCount>
      <stageThreshold>-1.4157726764678955e+00</stageThreshold>
      <weakClassifiers>
        <_>
          <internalNodes>
            0 -1 67 3.2588355243206024e-02</internalNodes>
          <leafValues>
            -8.6148005723953247e-01 3.8709676265716553e-01</leafValues></_>
        <_>
          <internalNodes>
            0 -1 88 3.6245264112949371e-02</internalNodes>
          <leafValues>
            -6.6970700025558472e-01 5.1912325620651245e-01</leafValues></_>
        <_>
          <internalNodes>
            0 -1 93 6.0097360983490944e-03</internalNodes>
          <leafValues>
            2.1763254702091217e-01 -8.7394881248474121e-01</leafValues></_>
        <_>
          <internalNodes>
            0 -1 34 3.5894073545932770e-02</internalNodes>
          <leafValues>
            -3.6155003309249878e-01 6.9992840290069580e-01</leafValues></_>
        <_>
          <internalNodes>
            0 -1 113 3.4723908174782991e-04</internalNodes>
          <leafValues>
            2.8943485021591187e-01 -9.1050952672958374e-01</leafValues></_></weakClassifiers></_>
    <!-- stage 4 -->
    <_>
      <maxWeakCount>7</maxWeakCount>
      <stageThreshold>-2.0033016204833984e+00</stageThreshold>
      <weakClassifiers>
        <_>
          <internalNodes>
            0 -1 40 -1.0868562757968903e-01</internalNodes>
          <leafValues>
            9.1304349899291992e-01 -8.2799631357192993e-01</leafValues></_>
        <_>
          <internalNodes>
            0 -1 3 4.4749903678894043e-01</internalNodes>
          <leafValues>
            -6.9048905372619629e-01 3.2103174924850464e-01</leafValues></_>
        <_>
          <internalNodes>
            0 -1 113 -6.4628373365849257e-04</internalNodes>
          <leafValues>
            -8.1174892187118530e-01 2.4298958480358124e-01</leafValues></_>
        <_>
          <internalNodes>
            0 -1 10 -7.0858548860996962e-04</internalNodes>
          <leafValues>
            -9.3507421016693115e-01 1.7879799008369446e-01</leafValues></_>
        <_>
          <internalNodes>
            0 -1 25 4.5191116631031036e-02</internalNodes>
          <leafValues>
            -3.9964288473129272e-01 5.1315236091613770e-01</leafValues></_>
        <_>
          <internalNodes>
            0 -1 99 4.8913665523286909e-05</internalNodes>
          <leafValues>
            3.4085085988044739e-01 -6.5185564756393433e-01</leafValues></_>
        <_>
          <internalNodes>
            0 -1 22 -1.0216264054179192e-03</internalNodes>
          <leafValues>
            -8.9302247762680054e-01 2.0692676305770874e-01</leafValues></_></weakClassifiers></_>
    <!-- stage 5 -->
    <_>
      <maxWeakCount>7</maxWeakCount>
      <stageThreshold>-1.6914122104644775e+00</stageThreshold>
      <weakClassifiers>
        <_>
          <internalNodes>
            0 -1 17 1.1196270585060120e-01</internalNodes>
          <leafValues>
            -8.3057087659835815e-01 6.0000002384185791e-01</leafValues></_>
        <_>
          <internalNodes>
            0 -1 18 -1.1348624527454376e-01</internalNodes>
          <leafValues>
            2.4667292833328247e-01 -5.8980149030685425e-01</leafValues></_>
        <_>
          <internalNodes>
            0 -1 26 2.4034065063460730e-05</internalNodes>
          <leafValues>
            -4.6729406714439392e-01 3.9822521805763245e-01</leafValues></_>
        <_>
          <internalNodes>
            0 -1 119 6.6333101131021976e-04</internalNodes>
          <leafValues>
            2.0713223516941071e-01 -9.1971600055694580e-01</leafValues></_>
        <_>
          <internalNodes>
            0 -1 117 1.2470926158130169e-03</internalNodes>
          <leafValues>
            2.2859691083431244e-01 -8.8294810056686401e-01</leafValues></_>
        <_>
          <internalNodes>
            0 -1 36 3.9681658148765564e-02</internalNodes>
          <leafValues>
            -3.1151673197746277e-01 7.5234878063201904e-01</leafValues></_>
        <_>
          <internalNodes>
            0 -1 35 -6.5057058236561716e-05</internalNodes>
          <leafValues>
            -5.8820044994354248e-01 3.4711244702339172e-01</leafValues></_></weakClassifiers></_>
    <!-- stage 6 -->
    <_>
      <maxWeakCount>3</maxWeakCount>
      <stageThreshold>-1.8746389150619507e+00</stageThreshold>
      <weakClassifiers>
        <_>
          <internalNodes>
            0 -1 116 2.6643709134077653e-05</internalNodes>
          <leafValues>
            -9.4925028085708618e-01 -2.4497991800308228e-01</leafValues></_>
        <_>
          <internalNodes>
            0 -1 98 -2.5207877115462907e-05</internalNodes>
          <leafValues>
            2.4909950792789459e-01 -8.4855240583419800e-01</leafValues></_>
        <_>
          <internalNodes>
            0 -1 125 2.2531137801706791e-05</internalNodes>
          <leafValues>
            -7.8110659122467041e-01 4.2059719562530518e-01</leafValues></_></weakClassifiers></_>
    <!-- stage 7 -->
    <_>
      <maxWeakCount>4</maxWeakCount>
      <stageThreshold>-1.4890630245208740e+00</stageThreshold>
      <weakClassifiers>
        <_>
          <internalNodes>
            0 -1 12 1.4411158917937428e-04</internalNodes>
          <leafValues>
            -9.6093750000000000e-01 -4.1954022645950317e-01</leafValues></_>
        <_>
          <internalNodes>
            0 -1 82 -2.6988534955307841e-05</internalNodes>
          <leafValues>
            1.3549853861331940e-01 -8.0537372827529907e-01</leafValues></_>
        <_>
          <internalNodes>
            0 -1 27 1.2925604823976755e-04</internalNodes>
          <leafValues>
            -6.6872286796569824e-01 3.7014698982238770e-01</leafValues></_>
        <_>
          <internalNodes>
            0 -1 20 -3.9377085864543915e-02</internalNodes>
          <leafValues>
            4.5880922675132751e-01 -5.3629845380783081e-01</leafValues></_></weakClassifiers></_>
    <!-- stage 8 -->
    <_>
      <maxWeakCount>7</maxWeakCount>
      <stageThreshold>-1.9521900415420532e+00</stageThreshold>
      <weakClassifiers>
        <_>
          <internalNodes>
            0 -1 84 2.3421905934810638e-02</internalNodes>
          <leafValues>
            -8.1901282072067261e-01 5.4545456171035767e-01</leafValues></_>
        <_>
          <internalNodes>
            0 -1 7 3.1678915547672659e-05</internalNodes>
          <leafValues>
            -8.0611050128936768e-01 1.1281177401542664e-02</leafValues></_>
        <_>
          <internalNodes>
            0 -1 78 9.9983488325960934e-05</internalNodes>
          <leafValues>
            -6.0391783714294434e-01 2.4167530238628387e-01</leafValues></_>
        <_>
          <internalNodes>
            0 -1 33 2.2753181838197634e-05</internalNodes>
          <leafValues>
            -5.5191922187805176e-01 2.8678748011589050e-01</leafValues></_>
        <_>
          <internalNodes>
            0 -1 123 -1.3040908379480243e-03</internalNodes>
          <leafValues>
            -9.3821388483047485e-01 1.8284477293491364e-01</leafValues></_>
        <_>
          <internalNodes>
            0 -1 121 -2.5319550331914797e-05</internalNodes>
          <leafValues>
            3.3566591143608093e-01 -4.9325883388519287e-01</leafValues></_>
        <_>
          <internalNodes>
            0 -1 16 2.5275374355260283e-05</internalNodes>
          <leafValues>
            -5.6325191259384155e-01 2.9359126091003418e-01</leafValues></_></weakClassifiers></_>
    <!-- stage 9 -->
    <_>
      <maxWeakCount>7</maxWeakCount>
      <stageThreshold>-1.7405172586441040e+00</stageThreshold>
      <weakClassifiers>
        <_>
          <internalNodes>
            0 -1 58 1.8802087754011154e-02</internalNodes>
          <leafValues>
            -8.3472609519958496e-01 3.8461539149284363e-01</leafValues></_>
        <_>
          <internalNodes>
            0 -1 45 6.3941621920093894e-04</internalNodes>
          <leafValues>
            -6.0911601781845093e-01 1.3512355089187622e-01</leafValues></_>
        <_>
          <internalNodes>
            0 -1 73 2.4190139956772327e-03</internalNodes>
          <leafValues>
            1.6561426222324371e-01 -8.8107424974441528e-01</leafValues></_>
        <_>
          <internalNodes>
            0 -1 101 -3.5940727684646845e-05</internalNodes>
          <leafValues>
            3.0440214276313782e-01 -5.4632377624511719e-01</leafValues></_>
        <_>
          <internalNodes>
            0 -1 14 2.6228265836834908e-02</internalNodes>
          <leafValues>
            1.8810009956359863e-01 -7.0338815450668335e-01</leafValues></_>
        <_>
          <internalNodes>
            0 -1 80 -1.1266992078162730e-04</internalNodes>
          <leafValues>
            2.8212621808052063e-01 -6.8611669540405273e-01</leafValues></_>
        <_>
          <internalNodes>
            0 -1 66 -7.6924269087612629e-03</internalNodes>
          <leafValues>
            7.0157474279403687e-01 -2.6867502927780151e-01</leafValues></_></weakClassifiers></_>
    <!-- stage 10 -->
    <_>
      <maxWeakCount>7</maxWeakCount>
      <stageThreshold>-1.6192708015441895e+00</stageThreshold>
      <weakClassifiers>
        <_>
          <internalNodes>
            0 -1 51 -5.5589921772480011e-02</internalNodes>
          <leafValues>
            3.7500000000000000e-01 -8.2656824588775635e-01</leafValues></_>
        <_>
          <internalNodes>
            0 -1 41 1.0148510336875916e-01</internalNodes>
          <leafValues>
            -6.2738096714019775e-01 1.8806056678295135e-01</leafValues></_>
        <_>
          <internalNodes>
            0 -1 65 1.9608888775110245e-02</internalNodes>
          <leafValues>
            -3.1219717860221863e-01 6.0778927803039551e-01</leafValues></_>
        <_>
          <internalNodes>
            0 -1 102 6.1667413683608174e-04</internalNodes>
          <leafValues>
            -6.1762797832489014e-01 2.8382962942123413e-01</leafValues></_>
        <_>
          <internalNodes>
            0 -1 96 -2.8661730539170094e-05</internalNodes>
          <leafValues>
            2.4464249610900879e-01 -6.6342860460281372e-01</leafValues></_>
        <_>
          <internalNodes>
            0 -1 111 -1.9248401804361492e-04</internalNodes>
          <leafValues>
            3.0900594592094421e-01 -5.0401067733764648e-01</leafValues></_>
        <_>
          <internalNodes>
            0 -1 9 2.2197520593181252e-05</internalNodes>
          <leafValues>
            -4.8358130455017090e-01 3.0348479747772217e-01</leafValues></_></weakClassifiers></_>
    <!-- stage 11 -->
    <_>
      <maxWeakCount>7</maxWeakCount>
      <stageThreshold>-1.4862099885940552e+00</stageThreshold>
      <weakClassifiers>
        <_>
          <internalNodes>
            0 -1 50 -7.6304450631141663e-02</internalNodes>
          <leafValues>
            3.3333334326744080e-01 -8.2320439815521240e-01</leafValues></_>
        <_>
          <internalNodes>
            0 -1 120 -1.5495762636419386e-04</internalNodes>
          <leafValues>
            4.8734568059444427e-02 -7.5420928001403809e-01</leafValues></_>
        <_>
          <internalNodes>
            0 -1 106 7.9603743506595492e-04</internalNodes>
          <leafValues>
            -5.6840246915817261e-01 2.7093511819839478e-01</leafValues></_>
        <_>
          <internalNodes>
            0 -1 0 2.5263085262849927e-05</internalNodes>
          <leafValues>
            -6.4098560810089111e-01 2.2809682786464691e-01</leafValues></_>
        <_>
          <internalNodes>
            0 -1 104 -1.6902807401493192e-03</internalNodes>
          <leafValues>
            -7.6003354787826538e-01 2.0631372928619385e-01</leafValues></_>
        <_>
          <internalNodes>
            0 -1 115 -5.3331698291003704e-04</internalNodes>
          <leafValues>
            -7.5957047939300537e-01 1.8574270606040955e-01</leafValues></_>
        <_>
          <internalNodes>
            0 -1 19 1.1273240670561790e-03</internalNodes>
          <leafValues>
            2.0285636186599731e-01 -6.5921992063522339e-01</leafValues></_></weakClassifiers></_>
    <!-- stage 12 -->
    <_>
      <maxWeakCount>8</maxWeakCount>
      <stageThreshold>-1.6178848743438721e+00</stageThreshold>
      <weakClassifiers>
        <_>
          <internalNodes>
            0 -1 52 1.5614792704582214e-02</internalNodes>
          <leafValues>
            -8.1403827667236328e-01 4.7368422150611877e-01</leafValues></_>
        <_>
          <internalNodes>
            0 -1 2 -4.7202456742525101e-02</internalNodes>
          <leafValues>
            7.4146181344985962e-02 -6.0067981481552124e-01</leafValues></_>
        <_>
          <internalNodes>
            0 -1 108 -6.0360907809808850e-05</internalNodes>
          <leafValues>
            2.6483961939811707e-01 -5.9514588117599487e-01</leafValues></_>
        <_>
          <internalNodes>
            0 -1 95 -8.4905252151656896e-05</internalNodes>
          <leafValues>
            -6.5642923116683960e-01 1.7812709510326385e-01</leafValues></_>
        <_>
          <internalNodes>
            0 -1 90 2.4871373898349702e-04</internalNodes>
          <leafValues>
            3.0495831370353699e-01 -4.8182481527328491e-01</leafValues></_>
        <_>
          <internalNodes>
            0 -1 55 4.5426869764924049e-03</internalNodes>
          <leafValues>
            -3.2543703913688660e-01 4.3997070193290710e-01</leafValues></_>
        <_>
          <internalNodes>
            0 -1 46 3.7243855185806751e-03</internalNodes>
          <leafValues>
            1.5412060916423798e-01 -9.2839664220809937e-01</leafValues></_>
        <_>
          <internalNodes>
            0 -1 94 -1.9182337564416230e-04</internalNodes>
          <leafValues>
            -5.0986963510513306e-01 2.3994050920009613e-01</leafValues></_></weakClassifiers></_>
    <!-- stage 13 -->
    <_>
      <maxWeakCount>9</maxWeakCount>
      <stageThreshold>-1.7926428318023682e+00</stageThreshold>
      <weakClassifiers>
        <_>
          <internalNodes>
            0 -1 76 1.4928659424185753e-02</internalNodes>
          <leafValues>
            -8.1884723901748657e-01 4.7826087474822998e-01</leafValues></_>
        <_>
          <internalNodes>
            0 -1 39 2.2521423175930977e-02</internalNodes>
          <leafValues>
            -5.8579236268997192e-01 1.2904191017150879e-01</leafValues></_>
        <_>
          <internalNodes>
            0 -1 92 -1.7184263560920954e-04</internalNodes>
          <leafValues>
            -6.3429290056228638e-01 1.6412663459777832e-01</leafValues></_>
        <_>
          <internalNodes>
            0 -1 97 -4.5850258320569992e-03</internalNodes>
          <leafValues>
            -9.1382366418838501e-01 1.0580210387706757e-01</leafValues></_>
        <_>
          <internalNodes>
            0 -1 71 -6.0255103744566441e-04</internalNodes>
          <leafValues>
            1.7424675822257996e-01 -6.9428467750549316e-01</leafValues></_>
        <_>
          <internalNodes>
            0 -1 75 1.2158732861280441e-03</internalNodes>
          <leafValues>
            -3.6340138316154480e-01 3.3393460512161255e-01</leafValues></_>
        <_>
          <internalNodes>
            0 -1 43 6.1290943995118141e-03</internalNodes>
          <leafValues>
            -3.0745500326156616e-01 4.8479640483856201e-01</leafValues></_>
        <_>
          <internalNodes>
            0 -1 85 -3.9396305510308594e-05</internalNodes>
          <leafValues>
            -5.5638891458511353e-01 2.4872106313705444e-01</leafValues></_>
        <_>
          <internalNodes>
            0 -1 60 1.0369071736931801e-02</internalNodes>
          <leafValues>
            -2.3884792625904083e-01 5.8615475893020630e-01</leafValues></_></weakClassifiers></_>
    <!-- stage 14 -->
    <_>
      <maxWeakCount>9</maxWeakCount>
      <stageThreshold>-1.4818835258483887e+00</stageThreshold>
      <weakClassifiers>
        <_>
          <internalNodes>
            0 -1 61 1.1519503779709339e-02</internalNodes>
          <leafValues>
            -8.1108081340789795e-01 6.0000002384185791e-01</leafValues></_>
        <_>
          <internalNodes>
            0 -1 124 -1.0339762084186077e-03</internalNodes>
          <leafValues>
            1.9059774279594421e-01 -5.5673325061798096e-01</leafValues></_>
        <_>
          <internalNodes>
            0 -1 54 6.7756352946162224e-03</internalNodes>
          <leafValues>
            1.5112185478210449e-01 -6.6217094659805298e-01</leafValues></_>
        <_>
          <internalNodes>
            0 -1 30 2.4821457918733358e-04</internalNodes>
          <leafValues>
            -4.3755984306335449e-01 2.9823288321495056e-01</leafValues></_>
        <_>
          <internalNodes>
            0 -1 45 6.6608708584681153e-04</internalNodes>
          <leafValues>
            -3.4166273474693298e-01 4.0726363658905029e-01</leafValues></_>
        <_>
          <internalNodes>
            0 -1 23 2.5743464357219636e-04</internalNodes>
          <leafValues>
            -4.1836932301521301e-01 3.1804260611534119e-01</leafValues></_>
        <_>
          <internalNodes>
            0 -1 53 1.6007773578166962e-02</internalNodes>
          <leafValues>
            -3.0025324225425720e-01 4.0246245265007019e-01</leafValues></_>
        <_>
          <internalNodes>
            0 -1 24 4.3669249862432480e-04</internalNodes>
          <leafValues>
            2.1591447293758392e-01 -6.3831710815429688e-01</leafValues></_>
        <_>
          <internalNodes>
            0 -1 57 2.0129188895225525e-02</internalNodes>
          <leafValues>
            -2.3958289623260498e-01 5.4699367284774780e-01</leafValues></_></weakClassifiers></_>
    <!-- stage 15 -->
    <_>
      <maxWeakCount>9</maxWeakCount>
      <stageThreshold>-1.7527345418930054e+00</stageThreshold>
      <weakClassifiers>
        <_>
          <internalNodes>
            0 -1 103 1.7432674765586853e-02</internalNodes>
          <leafValues>
            -8.6108046770095825e-01 -4.9282297492027283e-01</leafValues></_>
        <_>
          <internalNodes>
            0 -1 13 6.5993430325761437e-04</internalNodes>
          <leafValues>
            -6.2680184841156006e-01 -3.6648910492658615e-02</leafValues></_>
        <_>
          <internalNodes>
            0 -1 47 -1.2348901946097612e-03</internalNodes>
          <leafValues>
            -7.9897701740264893e-01 1.1335290968418121e-01</leafValues></_>
        <_>
          <internalNodes>
            0 -1 8 -1.0660598054528236e-02</internalNodes>
          <leafValues>
            2.8936651349067688e-01 -3.6084571480751038e-01</leafValues></_>
        <_>
          <internalNodes>
            0 -1 81 2.1958936122246087e-04</internalNodes>
          <leafValues>
            -4.6140196919441223e-01 3.1064859032630920e-01</leafValues></_>
        <_>
          <internalNodes>
            0 -1 107 -2.8890030080219731e-05</internalNodes>
          <leafValues>
            1.9653293490409851e-01 -5.4875600337982178e-01</leafValues></_>
        <_>
          <internalNodes>
            0 -1 42 -2.2873355075716972e-02</internalNodes>
          <leafValues>
            5.5483031272888184e-01 -2.4536710977554321e-01</leafValues></_>
        <_>
          <internalNodes>
            0 -1 29 8.2492232322692871e-03</internalNodes>
          <leafValues>
            -3.0219990015029907e-01 4.5789313316345215e-01</leafValues></_>
        <_>
          <internalNodes>
            0 -1 118 -8.2514923997223377e-04</internalNodes>
          <leafValues>
            -8.6196756362915039e-01 1.4486448466777802e-01</leafValues></_></weakClassifiers></_>
    <!-- stage 16 -->
    <_>
      <maxWeakCount>9</maxWeakCount>
      <stageThreshold>-1.4746716022491455e+00</stageThreshold>
      <weakClassifiers>
        <_>
          <internalNodes>
            0 -1 21 5.7682730257511139e-02</internalNodes>
          <leafValues>
            -8.2641512155532837e-01 -1.4285714924335480e-01</leafValues></_>
        <_>
          <internalNodes>
            0 -1 126 2.2676413209410384e-05</internalNodes>
          <leafValues>
            -6.7303115129470825e-01 -1.6264770179986954e-02</leafValues></_>
        <_>
          <internalNodes>
            0 -1 112 -1.5190870908554643e-04</internalNodes>
          <leafValues>
            -5.3381723165512085e-01 1.7643304169178009e-01</leafValues></_>
        <_>
          <internalNodes>
            0 -1 72 8.5584491491317749e-02</internalNodes>
          <leafValues>
            1.1616513878107071e-01 -8.1082463264465332e-01</leafValues></_>
        <_>
          <internalNodes>
            0 -1 86 5.7651000097393990e-03</internalNodes>
          <leafValues>
            -4.1349154710769653e-01 2.8131079673767090e-01</leafValues></_>
        <_>
          <internalNodes>
            0 -1 89 -8.2353577017784119e-02</internalNodes>
          <leafValues>
            7.2468787431716919e-01 -1.8517199158668518e-01</leafValues></_>
        <_>
          <internalNodes>
            0 -1 11 2.7184307327843271e-05</internalNodes>
          <leafValues>
            -4.7992351651191711e-01 2.6590296626091003e-01</leafValues></_>
        <_>
          <internalNodes>
            0 -1 38 4.0785586461424828e-03</internalNodes>
          <leafValues>
            1.0464916378259659e-01 -8.3665025234222412e-01</leafValues></_>
        <_>
          <internalNodes>
            0 -1 109 -3.7196237826719880e-05</internalNodes>
          <leafValues>
            -4.6429109573364258e-01 2.1952097117900848e-01</leafValues></_></weakClassifiers></_>
    <!-- stage 17 -->
    <_>
      <maxWeakCount>7</maxWeakCount>
      <stageThreshold>-1.4631856679916382e+00</stageThreshold>
      <weakClassifiers>
        <_>
          <internalNodes>
            0 -1 77 -9.8350912332534790e-02</internalNodes>
          <leafValues>
            1. -8.0342650413513184e-01</leafValues></_>
        <_>
          <internalNodes>
            0 -1 15 2.8586615371750668e-05</internalNodes>
          <leafValues>
            -6.3198256492614746e-01 -1.3197003863751888e-02</leafValues></_>
        <_>
          <internalNodes>
            0 -1 5 7.9071033000946045e-01</internalNodes>
          <leafValues>
            7.2166919708251953e-02 -1.</leafValues></_>
        <_>
          <internalNodes>
            0 -1 56 -3.3922763541340828e-03</internalNodes>
          <leafValues>
            -1. 1.1209055781364441e-01</leafValues></_>
        <_>
          <internalNodes>
            0 -1 83 -1.6602016330580227e-05</internalNodes>
          <leafValues>
            1.3232216238975525e-01 -6.2074762582778931e-01</leafValues></_>
        <_>
          <internalNodes>
            0 -1 31 -4.2879339307546616e-03</internalNodes>
          <leafValues>
            -8.5156929492950439e-01 1.2026049941778183e-01</leafValues></_>
        <_>
          <internalNodes>
            0 -1 68 3.4559272229671478e-02</internalNodes>
          <leafValues>
            -3.3033251762390137e-01 3.5481750965118408e-01</leafValues></_></weakClassifiers></_>
    <!-- stage 18 -->
    <_>
      <maxWeakCount>9</maxWeakCount>
      <stageThreshold>-1.6873714923858643e+00</stageThreshold>
      <weakClassifiers>
        <_>
          <internalNodes>
            0 -1 64 2.6829182170331478e-03</internalNodes>
          <leafValues>
            -8.6637461185455322e-01 -4.5812806487083435e-01</leafValues></_>
        <_>
          <internalNodes>
            0 -1 122 3.1685305293649435e-04</internalNodes>
          <leafValues>
            -6.8201118707656860e-01 -4.9260392785072327e-02</leafValues></_>
        <_>
          <internalNodes>
            0 -1 32 8.3805136382579803e-03</internalNodes>
          <leafValues>
            7.5907953083515167e-02 -8.9709424972534180e-01</leafValues></_>
        <_>
          <internalNodes>
            0 -1 79 2.4883547666831873e-05</internalNodes>
          <leafValues>
            -3.6078786849975586e-01 3.1787154078483582e-01</leafValues></_>
        <_>
          <internalNodes>
            0 -1 100 9.4903534045442939e-04</internalNodes>
          <leafValues>
            -2.9941961169242859e-01 3.7282708287239075e-01</leafValues></_>
        <_>
          <internalNodes>
            0 -1 127 2.8676593501586467e-05</internalNodes>
          <leafValues>
            -3.6761638522148132e-01 2.7339777350425720e-01</leafValues></_>
        <_>
          <internalNodes>
            0 -1 74 2.4466910399496555e-03</internalNodes>
          <leafValues>
            -1.7281943559646606e-01 5.6794071197509766e-01</leafValues></_>
        <_>
          <internalNodes>
            0 -1 62 4.5771931763738394e-04</internalNodes>
          <leafValues>
            2.0743910968303680e-01 -5.7489830255508423e-01</leafValues></_>
        <_>
          <internalNodes>
            0 -1 70 1.2728280853480101e-03</internalNodes>
          <leafValues>
            1.8713694810867310e-01 -5.8790194988250732e-01</leafValues></_></weakClassifiers></_></stages>
  <features>
    <_>
      <rects>
        <_>
          0 0 3 2 -1.</_>
        <_>
          0 1 3 1 2.</_></rects>
      <tilted>0</tilted></_>
    <_>
      <rects>
        <_>
          0 0 20 14 -1.</_>
        <_>
          0 0 10 7 2.</_>
        <_>
          10 7 10 7 2.</_></rects>
      <tilted>0</tilted></_>
    <_>
      <rects>
        <_>
          0 0 26 12 -1.</_>
        <_>
          0 0 13 6 2.</_>
        <_>
          13 6 13 6 2.</_></rects>
      <tilted>0</tilted></_>
    <_>
      <rects>
        <_>
          0 0 21 24 -1.</_>
        <_>
          0 12 21 12 2.</_></rects>
      <tilted>0</tilted></_>
    <_>
      <rects>
        <_>
          0 0 25 24 -1.</_>
        <_>
          0 12 25 12 2.</_></rects>
      <tilted>0</tilted></_>
    <_>
      <rects>
        <_>
          0 0 32 22 -1.</_>
        <_>
          0 11 32 11 2.</_></rects>
      <tilted>0</tilted></_>
    <_>
      <rects>
        <_>
          0 2 25 22 -1.</_>
        <_>
          0 13 25 11 2.</_></rects>
      <tilted>0</tilted></_>
    <_>
      <rects>
        <_>
          0 3 4 2 -1.</_>
        <_>
          0 4 4 1 2.</_></rects>
      <tilted>0</tilted></_>
    <_>
      <rects>
        <_>
          0 11 18 9 -1.</_>
        <_>
          9 11 9 9 2.</_></rects>
      <tilted>0</tilted></_>
    <_>
      <rects>
        <_>
          0 13 2 1 -1.</_>
        <_>
          1 13 1 1 2.</_></rects>
      <tilted>0</tilted></_>
    <_>
      <rects>
        <_>
          0 13 3 11 -1.</_>
        <_>
          1 13 1 11 3.</_></rects>
      <tilted>0</tilted></_>
    <_>
      <rects>
        <_>
          0 18 2 1 -1.</_>
        <_>
          1 18 1 1 2.</_></rects>
      <tilted>0</tilted></_>
    <_>
      <rects>
        <_>
          0 18 2 5 -1.</_>
        <_>
          1 18 1 5 2.</_></rects>
      <tilted>0</tilted></_>
    <_>
      <rects>
        <_>
          0 19 15 5 -1.</_>
        <_>
          5 19 5 5 3.</_></rects>
      <tilted>0</tilted></_>
    <_>
      <rects>
        <_>
          0 20 27 4 -1.</_>
        <_>
          9 20 9 4 3.</_></rects>
      <tilted>0</tilted></_>
    <_>
      <rects>
        <_>
          0 21 2 2 -1.</_>
        <_>
          0 22 2 1 2.</_></rects>
      <tilted>0</tilted></_>
    <_>
      <rects>
        <_>
          0 23 3 1 -1.</_>
        <_>
          1 23 1 1 3.</_></rects>
      <tilted>0</tilted></_>
    <_>
      <rects>
        <_>
          1 0 4 16 -1.</_>
        <_>
          1 8 4 8 2.</_></rects>
      <tilted>0</tilted></_>
    <_>
      <rects>
        <_>
          1 5 27 10 -1.</_>
        <_>
          10 5 9 10 3.</_></rects>
      <tilted>0</tilted></_>
    <_>
      <rects>
        <_>
          1 7 2 14 -1.</_>
        <_>
          2 7 1 14 2.</_></rects>
      <tilted>0</tilted></_>
    <_>
      <rects>
        <_>
          1 9 30 15 -1.</_>
        <_>
          11 9 10 15 3.</_></rects>
      <tilted>0</tilted></_>
    <_>
      <rects>
        <_>
          2 0 2 16 -1.</_>
        <_>
          2 8 2 8 2.</_></rects>
      <tilted>0</tilted></_>
    <_>
      <rects>
        <_>
          2 14 3 9 -1.</_>
        <_>
          3 14 1 9 3.</_></rects>
      <tilted>0</tilted></_>
    <_>
      <rects>
        <_>
          2 14 4 4 -1.</_>
        <_>
          4 14 2 4 2.</_></rects>
      <tilted>0</tilted></_>
    <_>
      <rects>
        <_>
          3 18 4 1 -1.</_>
        <_>
          5 18 2 1 2.</_></rects>
      <tilted>0</tilted></_>
    <_>
      <rects>
        <_>
          4 11 21 12 -1.</_>
        <_>
          4 15 21 4 3.</_></rects>
      <tilted>0</tilted></_>
    <_>
      <rects>
        <_>
          4 18 2 1 -1.</_>
        <_>
          5 18 1 1 2.</_></rects>
      <tilted>0</tilted></_>
    <_>
      <rects>
        <_>
          4 21 6 1 -1.</_>
        <_>
          7 21 3 1 2.</_></rects>
      <tilted>0</tilted></_>
    <_>
      <rects>
        <_>
          4 22 27 1 -1.</_>
        <_>
          13 22 9 1 3.</_></rects>
      <tilted>0</tilted></_>
    <_>
      <rects>
        <_>
          5 6 20 6 -1.</_>
        <_>
          5 8 20 2 3.</_></rects>
      <tilted>0</tilted></_>
    <_>
      <rects>
        <_>
          5 23 14 1 -1.</_>
        <_>
          12 23 7 1 2.</_></rects>
      <tilted>0</tilted></_>
    <_>
      <rects>
        <_>
          6 0 15 1 -1.</_>
        <_>
          11 0 5 1 3.</_></rects>
      <tilted>0</tilted></_>
    <_>
      <rects>
        <_>
          6 1 18 1 -1.</_>
        <_>
          12 1 6 1 3.</_></rects>
      <tilted>0</tilted></_>
    <_>
      <rects>
        <_>
          6 2 1 2 -1.</_>
        <_>
          6 3 1 1 2.</_></rects>
      <tilted>0</tilted></_>
    <_>
      <rects>
        <_>
          6 12 18 9 -1.</_>
        <_>
          6 15 18 3 3.</_></rects>
      <tilted>0</tilted></_>
    <_>
      <rects>
        <_>
          6 22 8 1 -1.</_>
        <_>
          10 22 4 1 2.</_></rects>
      <tilted>0</tilted></_>
    <_>
      <rects>
        <_>
          7 8 12 9 -1.</_>
        <_>
          11 8 4 9 3.</_></rects>
      <tilted>0</tilted></_>
    <_>
      <rects>
        <_>
          7 10 16 8 -1.</_>
        <_>
          7 10 8 4 2.</_>
        <_>
          15 14 8 4 2.</_></rects>
      <tilted>0</tilted></_>
    <_>
      <rects>
        <_>
          7 12 6 3 -1.</_>
        <_>
          10 12 3 3 2.</_></rects>
      <tilted>0</tilted></_>
    <_>
      <rects>
        <_>
          7 14 22 9 -1.</_>
        <_>
          7 17 22 3 3.</_></rects>
      <tilted>0</tilted></_>
    <_>
      <rects>
        <_>
          8 8 15 6 -1.</_>
        <_>
          13 8 5 6 3.</_></rects>
      <tilted>0</tilted></_>
    <_>
      <rects>
        <_>
          9 1 22 23 -1.</_>
        <_>
          20 1 11 23 2.</_></rects>
      <tilted>0</tilted></_>
    <_>
      <rects>
        <_>
          9 7 21 6 -1.</_>
        <_>
          9 9 21 2 3.</_></rects>
      <tilted>0</tilted></_>
    <_>
      <rects>
        <_>
          9 8 9 6 -1.</_>
        <_>
          12 8 3 6 3.</_></rects>
      <tilted>0</tilted></_>
    <_>
      <rects>
        <_>
          9 9 15 6 -1.</_>
        <_>
          9 11 15 2 3.</_></rects>
      <tilted>0</tilted></_>
    <_>
      <rects>
        <_>
          9 11 6 1 -1.</_>
        <_>
          11 11 2 1 3.</_></rects>
      <tilted>0</tilted></_>
    <_>
      <rects>
        <_>
          10 0 22 2 -1.</_>
        <_>
          10 0 11 1 2.</_>
        <_>
          21 1 11 1 2.</_></rects>
      <tilted>0</tilted></_>
    <_>
      <rects>
        <_>
          10 1 22 2 -1.</_>
        <_>
          10 1 11 1 2.</_>
        <_>
          21 2 11 1 2.</_></rects>
      <tilted>0</tilted></_>
    <_>
      <rects>
        <_>
          10 7 22 11 -1.</_>
        <_>
          21 7 11 11 2.</_></rects>
      <tilted>0</tilted></_>
    <_>
      <rects>
        <_>
          10 8 8 9 -1.</_>
        <_>
          10 11 8 3 3.</_></rects>
      <tilted>0</tilted></_>
    <_>
      <rects>
        <_>
          10 9 15 3 -1.</_>
        <_>
          15 9 5 3 3.</_></rects>
      <tilted>0</tilted></_>
    <_>
      <rects>
        <_>
          10 11 15 2 -1.</_>
        <_>
          15 11 5 2 3.</_></rects>
      <tilted>0</tilted></_>
    <_>
      <rects>
        <_>
          10 12 10 1 -1.</_>
        <_>
          15 12 5 1 2.</_></rects>
      <tilted>0</tilted></_>
    <_>
      <rects>
        <_>
          10 12 7 9 -1.</_>
        <_>
          10 15 7 3 3.</_></rects>
      <tilted>0</tilted></_>
    <_>
      <rects>
        <_>
          10 20 18 4 -1.</_>
        <_>
          16 20 6 4 3.</_></rects>
      <tilted>0</tilted></_>
    <_>
      <rects>
        <_>
          11 4 6 17 -1.</_>
        <_>
          13 4 2 17 3.</_></rects>
      <tilted>0</tilted></_>
    <_>
      <rects>
        <_>
          12 0 12 1 -1.</_>
        <_>
          16 0 4 1 3.</_></rects>
      <tilted>0</tilted></_>
    <_>
      <rects>
        <_>
          12 7 10 9 -1.</_>
        <_>
          12 10 10 3 3.</_></rects>
      <tilted>0</tilted></_>
    <_>
      <rects>
        <_>
          12 8 6 9 -1.</_>
        <_>
          14 8 2 9 3.</_></rects>
      <tilted>0</tilted></_>
    <_>
      <rects>
        <_>
          12 8 11 6 -1.</_>
        <_>
          12 10 11 2 3.</_></rects>
      <tilted>0</tilted></_>
    <_>
      <rects>
        <_>
          12 9 9 7 -1.</_>
        <_>
          15 9 3 7 3.</_></rects>
      <tilted>0</tilted></_>
    <_>
      <rects>
        <_>
          12 12 6 1 -1.</_>
        <_>
          15 12 3 1 2.</_></rects>
      <tilted>0</tilted></_>
    <_>
      <rects>
        <_>
          12 19 12 2 -1.</_>
        <_>
          18 19 6 2 2.</_></rects>
      <tilted>0</tilted></_>
    <_>
      <rects>
        <_>
          12 20 20 2 -1.</_>
        <_>
          22 20 10 2 2.</_></rects>
      <tilted>0</tilted></_>
    <_>
      <rects>
        <_>
          13 0 10 1 -1.</_>
        <_>
          18 0 5 1 2.</_></rects>
      <tilted>0</tilted></_>
    <_>
      <rects>
        <_>
          13 8 12 8 -1.</_>
        <_>
          17 8 4 8 3.</_></rects>
      <tilted>0</tilted></_>
    <_>
      <rects>
        <_>
          13 8 10 4 -1.</_>
        <_>
          13 8 5 2 2.</_>
        <_>
          18 10 5 2 2.</_></rects>
      <tilted>0</tilted></_>
    <_>
      <rects>
        <_>
          13 8 10 6 -1.</_>
        <_>
          18 8 5 6 2.</_></rects>
      <tilted>0</tilted></_>
    <_>
      <rects>
        <_>
          13 8 18 13 -1.</_>
        <_>
          19 8 6 13 3.</_></rects>
      <tilted>0</tilted></_>
    <_>
      <rects>
        <_>
          13 9 11 6 -1.</_>
        <_>
          13 11 11 2 3.</_></rects>
      <tilted>0</tilted></_>
    <_>
      <rects>
        <_>
          13 13 1 4 -1.</_>
        <_>
          13 15 1 2 2.</_></rects>
      <tilted>0</tilted></_>
    <_>
      <rects>
        <_>
          13 21 18 2 -1.</_>
        <_>
          22 21 9 2 2.</_></rects>
      <tilted>0</tilted></_>
    <_>
      <rects>
        <_>
          14 0 18 18 -1.</_>
        <_>
          14 6 18 6 3.</_></rects>
      <tilted>0</tilted></_>
    <_>
      <rects>
        <_>
          14 2 12 1 -1.</_>
        <_>
          18 2 4 1 3.</_></rects>
      <tilted>0</tilted></_>
    <_>
      <rects>
        <_>
          14 7 3 17 -1.</_>
        <_>
          15 7 1 17 3.</_></rects>
      <tilted>0</tilted></_>
    <_>
      <rects>
        <_>
          14 7 9 4 -1.</_>
        <_>
          17 7 3 4 3.</_></rects>
      <tilted>0</tilted></_>
    <_>
      <rects>
        <_>
          14 10 1 8 -1.</_>
        <_>
          14 14 1 4 2.</_></rects>
      <tilted>0</tilted></_>
    <_>
      <rects>
        <_>
          14 10 18 3 -1.</_>
        <_>
          20 10 6 3 3.</_></rects>
      <tilted>0</tilted></_>
    <_>
      <rects>
        <_>
          15 1 12 1 -1.</_>
        <_>
          19 1 4 1 3.</_></rects>
      <tilted>0</tilted></_>
    <_>
      <rects>
        <_>
          15 21 1 3 -1.</_>
        <_>
          15 22 1 1 3.</_></rects>
      <tilted>0</tilted></_>
    <_>
      <rects>
        <_>
          15 21 10 3 -1.</_>
        <_>
          20 21 5 3 2.</_></rects>
      <tilted>0</tilted></_>
    <_>
      <rects>
        <_>
          16 4 8 2 -1.</_>
        <_>
          16 5 8 1 2.</_></rects>
      <tilted>0</tilted></_>
    <_>
      <rects>
        <_>
          16 19 4 3 -1.</_>
        <_>
          18 19 2 3 2.</_></rects>
      <tilted>0</tilted></_>
    <_>
      <rects>
        <_>
          16 20 10 1 -1.</_>
        <_>
          21 20 5 1 2.</_></rects>
      <tilted>0</tilted></_>
    <_>
      <rects>
        <_>
          17 9 1 12 -1.</_>
        <_>
          17 15 1 6 2.</_></rects>
      <tilted>0</tilted></_>
    <_>
      <rects>
        <_>
          17 23 2 1 -1.</_>
        <_>
          18 23 1 1 2.</_></rects>
      <tilted>0</tilted></_>
    <_>
      <rects>
        <_>
          18 2 13 6 -1.</_>
        <_>
          18 5 13 3 2.</_></rects>
      <tilted>0</tilted></_>
    <_>
      <rects>
        <_>
          18 20 14 1 -1.</_>
        <_>
          25 20 7 1 2.</_></rects>
      <tilted>0</tilted></_>
    <_>
      <rects>
        <_>
          21 1 10 15 -1.</_>
        <_>
          26 1 5 15 2.</_></rects>
      <tilted>0</tilted></_>
    <_>
      <rects>
        <_>
          21 6 7 18 -1.</_>
        <_>
          21 15 7 9 2.</_></rects>
      <tilted>0</tilted></_>
    <_>
      <rects>
        <_>
          21 19 6 4 -1.</_>
        <_>
          23 19 2 4 3.</_></rects>
      <tilted>0</tilted></_>
    <_>
      <rects>
        <_>
          21 22 3 2 -1.</_>
        <_>
          22 22 1 2 3.</_></rects>
      <tilted>0</tilted></_>
    <_>
      <rects>
        <_>
          22 1 4 6 -1.</_>
        <_>
          22 1 2 3 2.</_>
        <_>
          24 4 2 3 2.</_></rects>
      <tilted>0</tilted></_>
    <_>
      <rects>
        <_>
          22 16 4 8 -1.</_>
        <_>
          22 20 4 4 2.</_></rects>
      <tilted>0</tilted></_>
    <_>
      <rects>
        <_>
          22 20 6 3 -1.</_>
        <_>
          24 20 2 3 3.</_></rects>
      <tilted>0</tilted></_>
    <_>
      <rects>
        <_>
          22 20 6 4 -1.</_>
        <_>
          22 20 3 2 2.</_>
        <_>
          25 22 3 2 2.</_></rects>
      <tilted>0</tilted></_>
    <_>
      <rects>
        <_>
          22 21 4 1 -1.</_>
        <_>
          24 21 2 1 2.</_></rects>
      <tilted>0</tilted></_>
    <_>
      <rects>
        <_>
          23 18 8 2 -1.</_>
        <_>
          27 18 4 2 2.</_></rects>
      <tilted>0</tilted></_>
    <_>
      <rects>
        <_>
          23 20 2 2 -1.</_>
        <_>
          24 20 1 2 2.</_></rects>
      <tilted>0</tilted></_>
    <_>
      <rects>
        <_>
          24 1 6 3 -1.</_>
        <_>
          26 1 2 3 3.</_></rects>
      <tilted>0</tilted></_>
    <_>
      <rects>
        <_>
          24 1 4 6 -1.</_>
        <_>
          24 1 2 3 2.</_>
        <_>
          26 4 2 3 2.</_></rects>
      <tilted>0</tilted></_>
    <_>
      <rects>
        <_>
          24 3 6 1 -1.</_>
        <_>
          26 3 2 1 3.</_></rects>
      <tilted>0</tilted></_>
    <_>
      <rects>
        <_>
          25 0 5 4 -1.</_>
        <_>
          25 2 5 2 2.</_></rects>
      <tilted>0</tilted></_>
    <_>
      <rects>
        <_>
          25 1 6 17 -1.</_>
        <_>
          28 1 3 17 2.</_></rects>
      <tilted>0</tilted></_>
    <_>
      <rects>
        <_>
          25 3 6 8 -1.</_>
        <_>
          27 3 2 8 3.</_></rects>
      <tilted>0</tilted></_>
    <_>
      <rects>
        <_>
          25 3 7 21 -1.</_>
        <_>
          25 10 7 7 3.</_></rects>
      <tilted>0</tilted></_>
    <_>
      <rects>
        <_>
          25 12 7 6 -1.</_>
        <_>
          25 15 7 3 2.</_></rects>
      <tilted>0</tilted></_>
    <_>
      <rects>
        <_>
          25 17 2 5 -1.</_>
        <_>
          26 17 1 5 2.</_></rects>
      <tilted>0</tilted></_>
    <_>
      <rects>
        <_>
          25 18 6 2 -1.</_>
        <_>
          27 18 2 2 3.</_></rects>
      <tilted>0</tilted></_>
    <_>
      <rects>
        <_>
          26 0 3 3 -1.</_>
        <_>
          26 1 3 1 3.</_></rects>
      <tilted>0</tilted></_>
    <_>
      <rects>
        <_>
          26 0 4 4 -1.</_>
        <_>
          26 2 4 2 2.</_></rects>
      <tilted>0</tilted></_>
    <_>
      <rects>
        <_>
          26 7 6 5 -1.</_>
        <_>
          28 7 2 5 3.</_></rects>
      <tilted>0</tilted></_>
    <_>
      <rects>
        <_>
          26 9 6 4 -1.</_>
        <_>
          26 9 3 2 2.</_>
        <_>
          29 11 3 2 2.</_></rects>
      <tilted>0</tilted></_>
    <_>
      <rects>
        <_>
          26 17 3 3 -1.</_>
        <_>
          27 17 1 3 3.</_></rects>
      <tilted>0</tilted></_>
    <_>
      <rects>
        <_>
          27 0 5 3 -1.</_>
        <_>
          27 1 5 1 3.</_></rects>
      <tilted>0</tilted></_>
    <_>
      <rects>
        <_>
          27 1 1 21 -1.</_>
        <_>
          27 8 1 7 3.</_></rects>
      <tilted>0</tilted></_>
    <_>
      <rects>
        <_>
          27 4 1 2 -1.</_>
        <_>
          27 5 1 1 2.</_></rects>
      <tilted>0</tilted></_>
    <_>
      <rects>
        <_>
          27 12 3 12 -1.</_>
        <_>
          28 12 1 12 3.</_></rects>
      <tilted>0</tilted></_>
    <_>
      <rects>
        <_>
          28 6 2 6 -1.</_>
        <_>
          29 6 1 6 2.</_></rects>
      <tilted>0</tilted></_>
    <_>
      <rects>
        <_>
          28 16 2 7 -1.</_>
        <_>
          29 16 1 7 2.</_></rects>
      <tilted>0</tilted></_>
    <_>
      <rects>
        <_>
          28 16 4 6 -1.</_>
        <_>
          28 16 2 3 2.</_>
        <_>
          30 19 2 3 2.</_></rects>
      <tilted>0</tilted></_>
    <_>
      <rects>
        <_>
          29 0 2 2 -1.</_>
        <_>
          29 0 1 1 2.</_>
        <_>
          30 1 1 1 2.</_></rects>
      <tilted>0</tilted></_>
    <_>
      <rects>
        <_>
          29 9 2 8 -1.</_>
        <_>
          29 13 2 4 2.</_></rects>
      <tilted>0</tilted></_>
    <_>
      <rects>
        <_>
          30 5 2 12 -1.</_>
        <_>
          31 5 1 12 2.</_></rects>
      <tilted>0</tilted></_>
    <_>
      <rects>
        <_>
          30 8 2 16 -1.</_>
        <_>
          30 8 1 8 2.</_>
        <_>
          31 16 1 8 2.</_></rects>
      <tilted>0</tilted></_>
    <_>
      <rects>
        <_>
          31 0 1 2 -1.</_>
        <_>
          31 1 1 1 2.</_></rects>
      <tilted>0</tilted></_>
    <_>
      <rects>
        <_>
          31 0 1 3 -1.</_>
        <_>
          31 1 1 1 3.</_></rects>
      <tilted>0</tilted></_>
    <_>
      <rects>
        <_>
          31 21 1 2 -1.</_>
        <_>
          31 22 1 1 2.</_></rects>
      <tilted>0</tilted></_></features></cascade>
</opencv_storage>
