<?xml version="1.0"?>
<opencv_storage>
<cascade>
  <stageType>BOOST</stageType>
  <featureType>HAAR</featureType>
  <height>24</height>
  <width>24</width>
  <stageParams>
    <boostType>GAB</boostType>
    <minHitRate>9.9500000476837158e-01</minHitRate>
    <maxFalseAlarm>5.0000000000000000e-01</maxFalseAlarm>
    <weightTrimRate>9.4999998807907104e-01</weightTrimRate>
    <maxDepth>1</maxDepth>
    <maxWeakCount>100</maxWeakCount></stageParams>
  <featureParams>
    <maxCatCount>0</maxCatCount>
    <featSize>1</featSize>
    <mode>BASIC</mode></featureParams>
  <stageNum>15</stageNum>
  <stages>
    <!-- stage 0 -->
    <_>
      <maxWeakCount>4</maxWeakCount>
      <stageThreshold>-7.7187794446945190e-01</stageThreshold>
      <weakClassifiers>
        <_>
          <internalNodes>
            0 -1 1 4.6275722980499268e-01</internalNodes>
          <leafValues>
            -7.2049689292907715e-01 7.9746836423873901e-01</leafValues></_>
        <_>
          <internalNodes>
            0 -1 38 -3.1498464522883296e-04</internalNodes>
          <leafValues>
            3.0145129561424255e-01 -8.5831356048583984e-01</leafValues></_>
        <_>
          <internalNodes>
            0 -1 58 -5.8409436605870724e-03</internalNodes>
          <leafValues>
            -8.6970758438110352e-01 2.7707341313362122e-01</leafValues></_>
        <_>
          <internalNodes>
            0 -1 15 -2.1366592496633530e-02</internalNodes>
          <leafValues>
            5.2985912561416626e-01 -5.4844313859939575e-01</leafValues></_></weakClassifiers></_>
    <!-- stage 1 -->
    <_>
      <maxWeakCount>7</maxWeakCount>
      <stageThreshold>-1.5047965049743652e+00</stageThreshold>
      <weakClassifiers>
        <_>
          <internalNodes>
            0 -1 29 5.3522169589996338e-02</internalNodes>
          <leafValues>
            -7.2563177347183228e-01 2.5806450843811035e-01</leafValues></_>
        <_>
          <internalNodes>
            0 -1 65 -4.0407445339951664e-05</internalNodes>
          <leafValues>
            2.3676589131355286e-01 -7.6273286342620850e-01</leafValues></_>
        <_>
          <internalNodes>
            0 -1 67 -2.8370754444040358e-04</internalNodes>
          <leafValues>
            -8.4920525550842285e-01 2.2956484556198120e-01</leafValues></_>
        <_>
          <internalNodes>
            0 -1 16 1.3568748254328966e-03</internalNodes>
          <leafValues>
            -5.3632980585098267e-01 4.9850532412528992e-01</leafValues></_>
        <_>
          <internalNodes>
            0 -1 62 -8.1800179032143205e-05</internalNodes>
          <leafValues>
            -7.0491296052932739e-01 3.2793265581130981e-01</leafValues></_>
        <_>
          <internalNodes>
            0 -1 19 -5.4594807326793671e-02</internalNodes>
          <leafValues>
            6.9566655158996582e-01 -3.5858550667762756e-01</leafValues></_>
        <_>
          <internalNodes>
            0 -1 53 -1.8566709477454424e-03</internalNodes>
          <leafValues>
            -6.9486635923385620e-01 4.0025731921195984e-01</leafValues></_></weakClassifiers></_>
    <!-- stage 2 -->
    <_>
      <maxWeakCount>5</maxWeakCount>
      <stageThreshold>-9.4422489404678345e-01</stageThreshold>
      <weakClassifiers>
        <_>
          <internalNodes>
            0 -1 31 8.1158265471458435e-02</internalNodes>
          <leafValues>
            -7.0242214202880859e-01 3.0357143282890320e-01</leafValues></_>
        <_>
          <internalNodes>
            0 -1 35 1.4892218634486198e-02</internalNodes>
          <leafValues>
            -3.3751511573791504e-01 8.3907341957092285e-01</leafValues></_>
        <_>
          <internalNodes>
            0 -1 33 7.0974873378872871e-03</internalNodes>
          <leafValues>
            -3.2379356026649475e-01 6.9267487525939941e-01</leafValues></_>
        <_>
          <internalNodes>
            0 -1 74 -5.4546471801586449e-05</internalNodes>
          <leafValues>
            -7.2282338142395020e-01 3.4707278013229370e-01</leafValues></_>
        <_>
          <internalNodes>
            0 -1 9 -2.0624516764655709e-04</internalNodes>
          <leafValues>
            -9.4403535127639771e-01 2.3115175962448120e-01</leafValues></_></weakClassifiers></_>
    <!-- stage 3 -->
    <_>
      <maxWeakCount>4</maxWeakCount>
      <stageThreshold>-7.2977960109710693e-01</stageThreshold>
      <weakClassifiers>
        <_>
          <internalNodes>
            0 -1 44 -1.9819442182779312e-02</internalNodes>
          <leafValues>
            7.6470589637756348e-01 -5.9428572654724121e-01</leafValues></_>
        <_>
          <internalNodes>
            0 -1 39 1.4713283628225327e-02</internalNodes>
          <leafValues>
            -6.8292647600173950e-01 4.6956247091293335e-01</leafValues></_>
        <_>
          <internalNodes>
            0 -1 49 7.0886989124119282e-04</internalNodes>
          <leafValues>
            2.5520634651184082e-01 -8.3841943740844727e-01</leafValues></_>
        <_>
          <internalNodes>
            0 -1 71 1.8357206135988235e-04</internalNodes>
          <leafValues>
            2.9222622513771057e-01 -7.6262050867080688e-01</leafValues></_></weakClassifiers></_>
    <!-- stage 4 -->
    <_>
      <maxWeakCount>6</maxWeakCount>
      <stageThreshold>-1.2913451194763184e+00</stageThreshold>
      <weakClassifiers>
        <_>
          <internalNodes>
            0 -1 23 -3.4054987132549286e-02</internalNodes>
          <leafValues>
            8.5185188055038452e-01 -6.1959654092788696e-01</leafValues></_>
        <_>
          <internalNodes>
            0 -1 52 -1.1428734287619591e-03</internalNodes>
          <leafValues>
            -8.3791291713714600e-01 2.4655139446258545e-01</leafValues></_>
        <_>
          <internalNodes>
            0 -1 54 -9.7933656070381403e-04</internalNodes>
          <leafValues>
            -8.8462889194488525e-01 2.1003410220146179e-01</leafValues></_>
        <_>
          <internalNodes>
            0 -1 20 1.3394484296441078e-02</internalNodes>
          <leafValues>
            -2.6950791478157043e-01 9.5707190036773682e-01</leafValues></_>
        <_>
          <internalNodes>
            0 -1 4 4.1062658419832587e-04</internalNodes>
          <leafValues>
            -5.7523345947265625e-01 4.4129744172096252e-01</leafValues></_>
        <_>
          <internalNodes>
            0 -1 24 -1.7697621136903763e-02</internalNodes>
          <leafValues>
            8.8850462436676025e-01 -2.8359267115592957e-01</leafValues></_></weakClassifiers></_>
    <!-- stage 5 -->
    <_>
      <maxWeakCount>6</maxWeakCount>
      <stageThreshold>-9.7212660312652588e-01</stageThreshold>
      <weakClassifiers>
        <_>
          <internalNodes>
            0 -1 25 6.4184933900833130e-02</internalNodes>
          <leafValues>
            -5.7303369045257568e-01 7.7777779102325439e-01</leafValues></_>
        <_>
          <internalNodes>
            0 -1 70 -2.5104812812060118e-04</internalNodes>
          <leafValues>
            -7.1958518028259277e-01 2.6342475414276123e-01</leafValues></_>
        <_>
          <internalNodes>
            0 -1 56 -2.7412950657890178e-05</internalNodes>
          <leafValues>
            3.3954069018363953e-01 -6.0607713460922241e-01</leafValues></_>
        <_>
          <internalNodes>
            0 -1 72 8.1228755880147219e-04</internalNodes>
          <leafValues>
            2.1448886394500732e-01 -9.5281285047531128e-01</leafValues></_>
        <_>
          <internalNodes>
            0 -1 0 -5.7672798633575439e-02</internalNodes>
          <leafValues>
            5.2827721834182739e-01 -4.3283897638320923e-01</leafValues></_>
        <_>
          <internalNodes>
            0 -1 73 -1.8253995804116130e-03</internalNodes>
          <leafValues>
            -9.7434967756271362e-01 1.9930168986320496e-01</leafValues></_></weakClassifiers></_>
    <!-- stage 6 -->
    <_>
      <maxWeakCount>5</maxWeakCount>
      <stageThreshold>-7.8359854221343994e-01</stageThreshold>
      <weakClassifiers>
        <_>
          <internalNodes>
            0 -1 41 -3.9089411497116089e-02</internalNodes>
          <leafValues>
            7.2727274894714355e-01 -5.6302523612976074e-01</leafValues></_>
        <_>
          <internalNodes>
            0 -1 22 2.4487055838108063e-02</internalNodes>
          <leafValues>
            -4.0355738997459412e-01 6.2560135126113892e-01</leafValues></_>
        <_>
          <internalNodes>
            0 -1 75 -3.7060468457639217e-04</internalNodes>
          <leafValues>
            -7.9600584506988525e-01 3.2846677303314209e-01</leafValues></_>
        <_>
          <internalNodes>
            0 -1 7 -3.1132053118199110e-04</internalNodes>
          <leafValues>
            -8.5027045011520386e-01 2.4321463704109192e-01</leafValues></_>
        <_>
          <internalNodes>
            0 -1 34 1.7278581857681274e-02</internalNodes>
          <leafValues>
            -3.2437103986740112e-01 7.4309313297271729e-01</leafValues></_></weakClassifiers></_>
    <!-- stage 7 -->
    <_>
      <maxWeakCount>5</maxWeakCount>
      <stageThreshold>-7.3537230491638184e-01</stageThreshold>
      <weakClassifiers>
        <_>
          <internalNodes>
            0 -1 11 7.2617121040821075e-02</internalNodes>
          <leafValues>
            -6.1755484342575073e-01 3.4146341681480408e-01</leafValues></_>
        <_>
          <internalNodes>
            0 -1 55 1.3959968928247690e-03</internalNodes>
          <leafValues>
            2.7166858315467834e-01 -7.0174419879913330e-01</leafValues></_>
        <_>
          <internalNodes>
            0 -1 59 -8.9687143918126822e-04</internalNodes>
          <leafValues>
            -9.3517136573791504e-01 1.9089508056640625e-01</leafValues></_>
        <_>
          <internalNodes>
            0 -1 45 2.4033049703575671e-04</internalNodes>
          <leafValues>
            2.9966413974761963e-01 -6.1483108997344971e-01</leafValues></_>
        <_>
          <internalNodes>
            0 -1 13 -1.8204527441412210e-03</internalNodes>
          <leafValues>
            -7.7375882863998413e-01 2.4602121114730835e-01</leafValues></_></weakClassifiers></_>
    <!-- stage 8 -->
    <_>
      <maxWeakCount>5</maxWeakCount>
      <stageThreshold>-1.1115484237670898e+00</stageThreshold>
      <weakClassifiers>
        <_>
          <internalNodes>
            0 -1 48 4.9765204312279820e-04</internalNodes>
          <leafValues>
            -1.2133891135454178e-01 -8.6419755220413208e-01</leafValues></_>
        <_>
          <internalNodes>
            0 -1 47 -2.1417813841253519e-03</internalNodes>
          <leafValues>
            -8.4208703041076660e-01 1.4337532222270966e-01</leafValues></_>
        <_>
          <internalNodes>
            0 -1 46 9.0087216813117266e-04</internalNodes>
          <leafValues>
            2.5722578167915344e-01 -7.7152889966964722e-01</leafValues></_>
        <_>
          <internalNodes>
            0 -1 65 -2.0996283637941815e-05</internalNodes>
          <leafValues>
            2.3620499670505524e-01 -7.0912098884582520e-01</leafValues></_>
        <_>
          <internalNodes>
            0 -1 66 -7.3488766793161631e-04</internalNodes>
          <leafValues>
            -8.9924520254135132e-01 3.0377262830734253e-01</leafValues></_></weakClassifiers></_>
    <!-- stage 9 -->
    <_>
      <maxWeakCount>4</maxWeakCount>
      <stageThreshold>-8.1688874959945679e-01</stageThreshold>
      <weakClassifiers>
        <_>
          <internalNodes>
            0 -1 8 2.9384742447291501e-05</internalNodes>
          <leafValues>
            -8.2352942228317261e-01 1.6564416885375977e-01</leafValues></_>
        <_>
          <internalNodes>
            0 -1 66 -3.2369898690376431e-05</internalNodes>
          <leafValues>
            4.0105384588241577e-01 -7.7203851938247681e-01</leafValues></_>
        <_>
          <internalNodes>
            0 -1 76 6.8354042014107108e-05</internalNodes>
          <leafValues>
            -5.9635311365127563e-01 4.0026381611824036e-01</leafValues></_>
        <_>
          <internalNodes>
            0 -1 50 3.5143075365340337e-05</internalNodes>
          <leafValues>
            -6.1075818538665771e-01 4.2278105020523071e-01</leafValues></_></weakClassifiers></_>
    <!-- stage 10 -->
    <_>
      <maxWeakCount>5</maxWeakCount>
      <stageThreshold>-1.2087950706481934e+00</stageThreshold>
      <weakClassifiers>
        <_>
          <internalNodes>
            0 -1 4 3.4854246769100428e-04</internalNodes>
          <leafValues>
            -8.1463414430618286e-01 -1.0204081423580647e-02</leafValues></_>
        <_>
          <internalNodes>
            0 -1 57 2.5680905673652887e-04</internalNodes>
          <leafValues>
            -6.1283600330352783e-01 3.0538028478622437e-01</leafValues></_>
        <_>
          <internalNodes>
            0 -1 61 -8.7859953055158257e-05</internalNodes>
          <leafValues>
            3.7887820601463318e-01 -5.8708822727203369e-01</leafValues></_>
        <_>
          <internalNodes>
            0 -1 5 2.1374395117163658e-02</internalNodes>
          <leafValues>
            2.5611284375190735e-01 -8.4608507156372070e-01</leafValues></_>
        <_>
          <internalNodes>
            0 -1 11 7.1255087852478027e-02</internalNodes>
          <leafValues>
            -3.6856579780578613e-01 6.2212008237838745e-01</leafValues></_></weakClassifiers></_>
    <!-- stage 11 -->
    <_>
      <maxWeakCount>5</maxWeakCount>
      <stageThreshold>-6.3194787502288818e-01</stageThreshold>
      <weakClassifiers>
        <_>
          <internalNodes>
            0 -1 14 7.7822222374379635e-04</internalNodes>
          <leafValues>
            -7.8544062376022339e-01 2.5714287161827087e-01</leafValues></_>
        <_>
          <internalNodes>
            0 -1 10 -7.8641772270202637e-02</internalNodes>
          <leafValues>
            4.9022442102432251e-01 -4.9561408162117004e-01</leafValues></_>
        <_>
          <internalNodes>
            0 -1 6 2.9138511308701709e-05</internalNodes>
          <leafValues>
            -5.9014153480529785e-01 4.5837131142616272e-01</leafValues></_>
        <_>
          <internalNodes>
            0 -1 27 7.4374816904310137e-05</internalNodes>
          <leafValues>
            -5.1285755634307861e-01 4.8382133245468140e-01</leafValues></_>
        <_>
          <internalNodes>
            0 -1 42 3.9630969986319542e-03</internalNodes>
          <leafValues>
            -2.3041151463985443e-01 8.4402042627334595e-01</leafValues></_></weakClassifiers></_>
    <!-- stage 12 -->
    <_>
      <maxWeakCount>7</maxWeakCount>
      <stageThreshold>-1.2320108413696289e+00</stageThreshold>
      <weakClassifiers>
        <_>
          <internalNodes>
            0 -1 17 1.8794734030961990e-02</internalNodes>
          <leafValues>
            -5.4366195201873779e-01 5.2173912525177002e-01</leafValues></_>
        <_>
          <internalNodes>
            0 -1 21 4.3614776805043221e-03</internalNodes>
          <leafValues>
            -3.3540624380111694e-01 5.6452226638793945e-01</leafValues></_>
        <_>
          <internalNodes>
            0 -1 37 -1.3033454888500273e-04</internalNodes>
          <leafValues>
            3.2942056655883789e-01 -5.2498090267181396e-01</leafValues></_>
        <_>
          <internalNodes>
            0 -1 28 -1.4065760187804699e-03</internalNodes>
          <leafValues>
            -8.5238808393478394e-01 1.9562472403049469e-01</leafValues></_>
        <_>
          <internalNodes>
            0 -1 2 4.3112981074955314e-05</internalNodes>
          <leafValues>
            -6.0919803380966187e-01 2.5209966301918030e-01</leafValues></_>
        <_>
          <internalNodes>
            0 -1 69 3.2843396184034646e-05</internalNodes>
          <leafValues>
            -4.7887724637985229e-01 3.5202121734619141e-01</leafValues></_>
        <_>
          <internalNodes>
            0 -1 51 2.9720936436206102e-04</internalNodes>
          <leafValues>
            2.7214592695236206e-01 -6.2770730257034302e-01</leafValues></_></weakClassifiers></_>
    <!-- stage 13 -->
    <_>
      <maxWeakCount>7</maxWeakCount>
      <stageThreshold>-9.5788949728012085e-01</stageThreshold>
      <weakClassifiers>
        <_>
          <internalNodes>
            0 -1 60 -5.7082692364929244e-05</internalNodes>
          <leafValues>
            -5.6497175246477127e-03 -7.5000000000000000e-01</leafValues></_>
        <_>
          <internalNodes>
            0 -1 63 -3.4433949622325599e-05</internalNodes>
          <leafValues>
            2.5420036911964417e-01 -5.9588390588760376e-01</leafValues></_>
        <_>
          <internalNodes>
            0 -1 32 1.7116111703217030e-03</internalNodes>
          <leafValues>
            -3.7107527256011963e-01 5.6691288948059082e-01</leafValues></_>
        <_>
          <internalNodes>
            0 -1 68 3.7198980862740427e-05</internalNodes>
          <leafValues>
            -4.6264493465423584e-01 3.3728232979774475e-01</leafValues></_>
        <_>
          <internalNodes>
            0 -1 18 1.5237429761327803e-04</internalNodes>
          <leafValues>
            -4.6773242950439453e-01 3.8239070773124695e-01</leafValues></_>
        <_>
          <internalNodes>
            0 -1 43 -3.1352110207080841e-02</internalNodes>
          <leafValues>
            9.3749403953552246e-01 -1.7239680886268616e-01</leafValues></_>
        <_>
          <internalNodes>
            0 -1 12 7.9199606552720070e-03</internalNodes>
          <leafValues>
            2.6740929484367371e-01 -8.3143836259841919e-01</leafValues></_></weakClassifiers></_>
    <!-- stage 14 -->
    <_>
      <maxWeakCount>6</maxWeakCount>
      <stageThreshold>-1.0864021778106689e+00</stageThreshold>
      <weakClassifiers>
        <_>
          <internalNodes>
            0 -1 36 -2.8125517070293427e-02</internalNodes>
          <leafValues>
            4.4262295961380005e-01 -5.7647061347961426e-01</leafValues></_>
        <_>
          <internalNodes>
            0 -1 64 2.4326331913471222e-04</internalNodes>
          <leafValues>
            -4.8248472809791565e-01 3.5221007466316223e-01</leafValues></_>
        <_>
          <internalNodes>
            0 -1 26 -6.0450489399954677e-04</internalNodes>
          <leafValues>
            2.6229611039161682e-01 -7.1940970420837402e-01</leafValues></_>
        <_>
          <internalNodes>
            0 -1 3 2.9349022952374071e-05</internalNodes>
          <leafValues>
            -5.3762620687484741e-01 3.6212688684463501e-01</leafValues></_>
        <_>
          <internalNodes>
            0 -1 30 1.0286513715982437e-02</internalNodes>
          <leafValues>
            -2.3582342267036438e-01 6.6953873634338379e-01</leafValues></_>
        <_>
          <internalNodes>
            0 -1 40 2.8656248003244400e-02</internalNodes>
          <leafValues>
            -2.6903545856475830e-01 8.3382040262222290e-01</leafValues></_></weakClassifiers></_></stages>
  <features>
    <_>
      <rects>
        <_>
          0 0 18 14 -1.</_>
        <_>
          0 0 9 7 2.</_>
        <_>
          9 7 9 7 2.</_></rects>
      <tilted>0</tilted></_>
    <_>
      <rects>
        <_>
          0 0 16 24 -1.</_>
        <_>
          0 12 16 12 2.</_></rects>
      <tilted>0</tilted></_>
    <_>
      <rects>
        <_>
          0 3 3 2 -1.</_>
        <_>
          0 4 3 1 2.</_></rects>
      <tilted>0</tilted></_>
    <_>
      <rects>
        <_>
          0 13 2 1 -1.</_>
        <_>
          1 13 1 1 2.</_></rects>
      <tilted>0</tilted></_>
    <_>
      <rects>
        <_>
          0 17 2 6 -1.</_>
        <_>
          1 17 1 6 2.</_></rects>
      <tilted>0</tilted></_>
    <_>
      <rects>
        <_>
          0 17 10 4 -1.</_>
        <_>
          5 17 5 4 2.</_></rects>
      <tilted>0</tilted></_>
    <_>
      <rects>
        <_>
          0 21 2 1 -1.</_>
        <_>
          1 21 1 1 2.</_></rects>
      <tilted>0</tilted></_>
    <_>
      <rects>
        <_>
          0 22 3 1 -1.</_>
        <_>
          1 22 1 1 3.</_></rects>
      <tilted>0</tilted></_>
    <_>
      <rects>
        <_>
          1 0 1 2 -1.</_>
        <_>
          1 1 1 1 2.</_></rects>
      <tilted>0</tilted></_>
    <_>
      <rects>
        <_>
          1 7 1 2 -1.</_>
        <_>
          1 8 1 1 2.</_></rects>
      <tilted>0</tilted></_>
    <_>
      <rects>
        <_>
          1 8 21 16 -1.</_>
        <_>
          8 8 7 16 3.</_></rects>
      <tilted>0</tilted></_>
    <_>
      <rects>
        <_>
          1 11 15 12 -1.</_>
        <_>
          1 15 15 4 3.</_></rects>
      <tilted>0</tilted></_>
    <_>
      <rects>
        <_>
          1 23 21 1 -1.</_>
        <_>
          8 23 7 1 3.</_></rects>
      <tilted>0</tilted></_>
    <_>
      <rects>
        <_>
          2 1 10 1 -1.</_>
        <_>
          7 1 5 1 2.</_></rects>
      <tilted>0</tilted></_>
    <_>
      <rects>
        <_>
          2 21 6 3 -1.</_>
        <_>
          5 21 3 3 2.</_></rects>
      <tilted>0</tilted></_>
    <_>
      <rects>
        <_>
          3 8 12 8 -1.</_>
        <_>
          9 8 6 8 2.</_></rects>
      <tilted>0</tilted></_>
    <_>
      <rects>
        <_>
          4 0 4 4 -1.</_>
        <_>
          4 2 4 2 2.</_></rects>
      <tilted>0</tilted></_>
    <_>
      <rects>
        <_>
          4 8 14 6 -1.</_>
        <_>
          4 10 14 2 3.</_></rects>
      <tilted>0</tilted></_>
    <_>
      <rects>
        <_>
          4 23 10 1 -1.</_>
        <_>
          9 23 5 1 2.</_></rects>
      <tilted>0</tilted></_>
    <_>
      <rects>
        <_>
          5 1 10 14 -1.</_>
        <_>
          5 1 5 7 2.</_>
        <_>
          10 8 5 7 2.</_></rects>
      <tilted>0</tilted></_>
    <_>
      <rects>
        <_>
          5 7 8 6 -1.</_>
        <_>
          5 7 4 3 2.</_>
        <_>
          9 10 4 3 2.</_></rects>
      <tilted>0</tilted></_>
    <_>
      <rects>
        <_>
          6 10 6 3 -1.</_>
        <_>
          8 10 2 3 3.</_></rects>
      <tilted>0</tilted></_>
    <_>
      <rects>
        <_>
          7 5 12 9 -1.</_>
        <_>
          7 8 12 3 3.</_></rects>
      <tilted>0</tilted></_>
    <_>
      <rects>
        <_>
          7 8 10 9 -1.</_>
        <_>
          7 11 10 3 3.</_></rects>
      <tilted>0</tilted></_>
    <_>
      <rects>
        <_>
          7 8 12 6 -1.</_>
        <_>
          7 10 12 2 3.</_></rects>
      <tilted>0</tilted></_>
    <_>
      <rects>
        <_>
          7 12 9 8 -1.</_>
        <_>
          7 16 9 4 2.</_></rects>
      <tilted>0</tilted></_>
    <_>
      <rects>
        <_>
          7 20 16 2 -1.</_>
        <_>
          15 20 8 2 2.</_></rects>
      <tilted>0</tilted></_>
    <_>
      <rects>
        <_>
          8 1 3 2 -1.</_>
        <_>
          8 2 3 1 2.</_></rects>
      <tilted>0</tilted></_>
    <_>
      <rects>
        <_>
          8 1 16 2 -1.</_>
        <_>
          8 1 8 1 2.</_>
        <_>
          16 2 8 1 2.</_></rects>
      <tilted>0</tilted></_>
    <_>
      <rects>
        <_>
          8 4 14 20 -1.</_>
        <_>
          15 4 7 20 2.</_></rects>
      <tilted>0</tilted></_>
    <_>
      <rects>
        <_>
          8 6 6 13 -1.</_>
        <_>
          10 6 2 13 3.</_></rects>
      <tilted>0</tilted></_>
    <_>
      <rects>
        <_>
          8 6 16 11 -1.</_>
        <_>
          16 6 8 11 2.</_></rects>
      <tilted>0</tilted></_>
    <_>
      <rects>
        <_>
          8 7 10 3 -1.</_>
        <_>
          8 8 10 1 3.</_></rects>
      <tilted>0</tilted></_>
    <_>
      <rects>
        <_>
          8 9 9 5 -1.</_>
        <_>
          11 9 3 5 3.</_></rects>
      <tilted>0</tilted></_>
    <_>
      <rects>
        <_>
          8 9 12 4 -1.</_>
        <_>
          12 9 4 4 3.</_></rects>
      <tilted>0</tilted></_>
    <_>
      <rects>
        <_>
          8 10 6 8 -1.</_>
        <_>
          8 10 3 4 2.</_>
        <_>
          11 14 3 4 2.</_></rects>
      <tilted>0</tilted></_>
    <_>
      <rects>
        <_>
          9 11 10 8 -1.</_>
        <_>
          9 11 5 4 2.</_>
        <_>
          14 15 5 4 2.</_></rects>
      <tilted>0</tilted></_>
    <_>
      <rects>
        <_>
          9 18 8 2 -1.</_>
        <_>
          13 18 4 2 2.</_></rects>
      <tilted>0</tilted></_>
    <_>
      <rects>
        <_>
          9 21 14 1 -1.</_>
        <_>
          16 21 7 1 2.</_></rects>
      <tilted>0</tilted></_>
    <_>
      <rects>
        <_>
          10 0 10 15 -1.</_>
        <_>
          15 0 5 15 2.</_></rects>
      <tilted>0</tilted></_>
    <_>
      <rects>
        <_>
          10 6 9 10 -1.</_>
        <_>
          13 6 3 10 3.</_></rects>
      <tilted>0</tilted></_>
    <_>
      <rects>
        <_>
          10 6 6 9 -1.</_>
        <_>
          10 9 6 3 3.</_></rects>
      <tilted>0</tilted></_>
    <_>
      <rects>
        <_>
          10 9 3 10 -1.</_>
        <_>
          11 9 1 10 3.</_></rects>
      <tilted>0</tilted></_>
    <_>
      <rects>
        <_>
          10 9 6 5 -1.</_>
        <_>
          12 9 2 5 3.</_></rects>
      <tilted>0</tilted></_>
    <_>
      <rects>
        <_>
          10 9 9 6 -1.</_>
        <_>
          10 11 9 2 3.</_></rects>
      <tilted>0</tilted></_>
    <_>
      <rects>
        <_>
          11 20 5 2 -1.</_>
        <_>
          11 21 5 1 2.</_></rects>
      <tilted>0</tilted></_>
    <_>
      <rects>
        <_>
          12 0 6 2 -1.</_>
        <_>
          12 0 3 1 2.</_>
        <_>
          15 1 3 1 2.</_></rects>
      <tilted>0</tilted></_>
    <_>
      <rects>
        <_>
          12 1 9 2 -1.</_>
        <_>
          15 1 3 2 3.</_></rects>
      <tilted>0</tilted></_>
    <_>
      <rects>
        <_>
          13 22 6 2 -1.</_>
        <_>
          15 22 2 2 3.</_></rects>
      <tilted>0</tilted></_>
    <_>
      <rects>
        <_>
          15 1 9 1 -1.</_>
        <_>
          18 1 3 1 3.</_></rects>
      <tilted>0</tilted></_>
    <_>
      <rects>
        <_>
          15 5 1 2 -1.</_>
        <_>
          15 6 1 1 2.</_></rects>
      <tilted>0</tilted></_>
    <_>
      <rects>
        <_>
          15 21 6 2 -1.</_>
        <_>
          17 21 2 2 3.</_></rects>
      <tilted>0</tilted></_>
    <_>
      <rects>
        <_>
          16 0 8 3 -1.</_>
        <_>
          16 1 8 1 3.</_></rects>
      <tilted>0</tilted></_>
    <_>
      <rects>
        <_>
          16 6 1 18 -1.</_>
        <_>
          16 12 1 6 3.</_></rects>
      <tilted>0</tilted></_>
    <_>
      <rects>
        <_>
          17 2 2 7 -1.</_>
        <_>
          18 2 1 7 2.</_></rects>
      <tilted>0</tilted></_>
    <_>
      <rects>
        <_>
          17 3 3 18 -1.</_>
        <_>
          18 3 1 18 3.</_></rects>
      <tilted>0</tilted></_>
    <_>
      <rects>
        <_>
          17 21 2 1 -1.</_>
        <_>
          18 21 1 1 2.</_></rects>
      <tilted>0</tilted></_>
    <_>
      <rects>
        <_>
          18 2 4 2 -1.</_>
        <_>
          18 3 4 1 2.</_></rects>
      <tilted>0</tilted></_>
    <_>
      <rects>
        <_>
          18 3 6 21 -1.</_>
        <_>
          18 10 6 7 3.</_></rects>
      <tilted>0</tilted></_>
    <_>
      <rects>
        <_>
          18 17 4 2 -1.</_>
        <_>
          18 17 2 1 2.</_>
        <_>
          20 18 2 1 2.</_></rects>
      <tilted>0</tilted></_>
    <_>
      <rects>
        <_>
          18 18 6 1 -1.</_>
        <_>
          20 18 2 1 3.</_></rects>
      <tilted>0</tilted></_>
    <_>
      <rects>
        <_>
          18 19 2 3 -1.</_>
        <_>
          19 19 1 3 2.</_></rects>
      <tilted>0</tilted></_>
    <_>
      <rects>
        <_>
          18 21 2 2 -1.</_>
        <_>
          18 21 1 1 2.</_>
        <_>
          19 22 1 1 2.</_></rects>
      <tilted>0</tilted></_>
    <_>
      <rects>
        <_>
          19 1 3 4 -1.</_>
        <_>
          20 1 1 4 3.</_></rects>
      <tilted>0</tilted></_>
    <_>
      <rects>
        <_>
          19 6 3 5 -1.</_>
        <_>
          20 6 1 5 3.</_></rects>
      <tilted>0</tilted></_>
    <_>
      <rects>
        <_>
          19 18 2 3 -1.</_>
        <_>
          20 18 1 3 2.</_></rects>
      <tilted>0</tilted></_>
    <_>
      <rects>
        <_>
          19 19 2 2 -1.</_>
        <_>
          20 19 1 2 2.</_></rects>
      <tilted>0</tilted></_>
    <_>
      <rects>
        <_>
          20 0 2 4 -1.</_>
        <_>
          20 2 2 2 2.</_></rects>
      <tilted>0</tilted></_>
    <_>
      <rects>
        <_>
          20 0 4 3 -1.</_>
        <_>
          20 1 4 1 3.</_></rects>
      <tilted>0</tilted></_>
    <_>
      <rects>
        <_>
          20 9 4 4 -1.</_>
        <_>
          20 9 2 2 2.</_>
        <_>
          22 11 2 2 2.</_></rects>
      <tilted>0</tilted></_>
    <_>
      <rects>
        <_>
          20 17 3 2 -1.</_>
        <_>
          21 17 1 2 3.</_></rects>
      <tilted>0</tilted></_>
    <_>
      <rects>
        <_>
          20 17 2 7 -1.</_>
        <_>
          21 17 1 7 2.</_></rects>
      <tilted>0</tilted></_>
    <_>
      <rects>
        <_>
          20 17 3 2 -1.</_>
        <_>
          20 18 3 1 2.</_></rects>
      <tilted>0</tilted></_>
    <_>
      <rects>
        <_>
          20 19 3 5 -1.</_>
        <_>
          21 19 1 5 3.</_></rects>
      <tilted>0</tilted></_>
    <_>
      <rects>
        <_>
          21 4 3 2 -1.</_>
        <_>
          21 5 3 1 2.</_></rects>
      <tilted>0</tilted></_>
    <_>
      <rects>
        <_>
          21 18 3 3 -1.</_>
        <_>
          22 18 1 3 3.</_></rects>
      <tilted>0</tilted></_>
    <_>
      <rects>
        <_>
          22 6 2 11 -1.</_>
        <_>
          23 6 1 11 2.</_></rects>
      <tilted>0</tilted></_></features></cascade>
</opencv_storage>
