<?xml version="1.0"?>
<opencv_storage>
<stage1>
  <maxWeakCount>7</maxWeakCount>
  <stageThreshold>-1.5047965049743652e+00</stageThreshold>
  <weakClassifiers>
    <_>
      <internalNodes>
        0 -1 92935 5.3522169589996338e-02</internalNodes>
      <leafValues>
        -7.2563177347183228e-01 2.5806450843811035e-01</leafValues></_>
    <_>
      <internalNodes>
        0 -1 157459 -4.0407445339951664e-05</internalNodes>
      <leafValues>
        2.3676589131355286e-01 -7.6273286342620850e-01</leafValues></_>
    <_>
      <internalNodes>
        0 -1 157685 -2.8370754444040358e-04</internalNodes>
      <leafValues>
        -8.4920525550842285e-01 2.2956484556198120e-01</leafValues></_>
    <_>
      <internalNodes>
        0 -1 49722 1.3568748254328966e-03</internalNodes>
      <leafValues>
        -5.3632980585098267e-01 4.9850532412528992e-01</leafValues></_>
    <_>
      <internalNodes>
        0 -1 155182 -8.1800179032143205e-05</internalNodes>
      <leafValues>
        -7.0491296052932739e-01 3.2793265581130981e-01</leafValues></_>
    <_>
      <internalNodes>
        0 -1 61618 -5.4594807326793671e-02</internalNodes>
      <leafValues>
        6.9566655158996582e-01 -3.5858550667762756e-01</leafValues></_>
    <_>
      <internalNodes>
        0 -1 145922 -1.8566709477454424e-03</internalNodes>
      <leafValues>
        -6.9486635923385620e-01 4.0025731921195984e-01</leafValues></_></weakClassifiers></stage1>
</opencv_storage>
