<?xml version="1.0"?>
<opencv_storage>
<stage8>
  <maxWeakCount>5</maxWeakCount>
  <stageThreshold>-1.1115484237670898e+00</stageThreshold>
  <weakClassifiers>
    <_>
      <internalNodes>
        0 -1 133727 4.9765204312279820e-04</internalNodes>
      <leafValues>
        -1.2133891135454178e-01 -8.6419755220413208e-01</leafValues></_>
    <_>
      <internalNodes>
        0 -1 122053 -2.1417813841253519e-03</internalNodes>
      <leafValues>
        -8.4208703041076660e-01 1.4337532222270966e-01</leafValues></_>
    <_>
      <internalNodes>
        0 -1 121508 9.0087216813117266e-04</internalNodes>
      <leafValues>
        2.5722578167915344e-01 -7.7152889966964722e-01</leafValues></_>
    <_>
      <internalNodes>
        0 -1 157459 -2.0996283637941815e-05</internalNodes>
      <leafValues>
        2.3620499670505524e-01 -7.0912098884582520e-01</leafValues></_>
    <_>
      <internalNodes>
        0 -1 157503 -7.3488766793161631e-04</internalNodes>
      <leafValues>
        -8.9924520254135132e-01 3.0377262830734253e-01</leafValues></_></weakClassifiers></stage8>
</opencv_storage>
