<?xml version="1.0"?>
<opencv_storage>
<stage1>
  <maxWeakCount>5</maxWeakCount>
  <stageThreshold>-1.4822750091552734e+00</stageThreshold>
  <weakClassifiers>
    <_>
      <internalNodes>
        0 -1 181445 -2.6456691324710846e-02</internalNodes>
      <leafValues>
        6.9230771064758301e-01 -8.4586817026138306e-01</leafValues></_>
    <_>
      <internalNodes>
        0 -1 4003 4.2848867177963257e-01</internalNodes>
      <leafValues>
        -7.1174657344818115e-01 4.1196912527084351e-01</leafValues></_>
    <_>
      <internalNodes>
        0 -1 754 -6.6610023379325867e-02</internalNodes>
      <leafValues>
        5.4580217599868774e-01 -4.6163499355316162e-01</leafValues></_>
    <_>
      <internalNodes>
        0 -1 239696 -1.7152231885120273e-04</internalNodes>
      <leafValues>
        3.1789290904998779e-01 -7.6959216594696045e-01</leafValues></_>
    <_>
      <internalNodes>
        0 -1 280845 -5.2956074796384200e-05</internalNodes>
      <leafValues>
        -7.4633109569549561e-01 2.9912969470024109e-01</leafValues></_></weakClassifiers></stage1>
</opencv_storage>
