<?xml version="1.0"?>
<opencv_storage>
<stage9>
  <maxWeakCount>7</maxWeakCount>
  <stageThreshold>-1.1251988410949707e+00</stageThreshold>
  <weakClassifiers>
    <_>
      <internalNodes>
        0 -1 49095 5.7956449687480927e-02</internalNodes>
      <leafValues>
        -6.7857140302658081e-01 1.7355372011661530e-01</leafValues></_>
    <_>
      <internalNodes>
        0 -1 76305 -2.8421745810192078e-05</internalNodes>
      <leafValues>
        2.9650327563285828e-01 -7.1094584465026855e-01</leafValues></_>
    <_>
      <internalNodes>
        0 -1 16684 -1.0432744398713112e-02</internalNodes>
      <leafValues>
        4.3390259146690369e-01 -5.4642993211746216e-01</leafValues></_>
    <_>
      <internalNodes>
        0 -1 50466 1.0432557610329241e-04</internalNodes>
      <leafValues>
        -5.6694573163986206e-01 3.6031976342201233e-01</leafValues></_>
    <_>
      <internalNodes>
        0 -1 244882 -4.6256638597697020e-04</internalNodes>
      <leafValues>
        3.2674711942672729e-01 -6.9559103250503540e-01</leafValues></_>
    <_>
      <internalNodes>
        0 -1 69325 2.7637999504804611e-02</internalNodes>
      <leafValues>
        -3.4356352686882019e-01 7.1634304523468018e-01</leafValues></_>
    <_>
      <internalNodes>
        0 -1 163988 3.9194878190755844e-03</internalNodes>
      <leafValues>
        -3.8488006591796875e-01 7.7322059869766235e-01</leafValues></_></weakClassifiers></stage9>
</opencv_storage>
