<?xml version="1.0"?>
<opencv_storage>
<stage17>
  <maxWeakCount>7</maxWeakCount>
  <stageThreshold>-1.4631856679916382e+00</stageThreshold>
  <weakClassifiers>
    <_>
      <internalNodes>
        0 -1 203000 -9.8350912332534790e-02</internalNodes>
      <leafValues>
        1. -8.0342650413513184e-01</leafValues></_>
    <_>
      <internalNodes>
        0 -1 17382 2.8586615371750668e-05</internalNodes>
      <leafValues>
        -6.3198256492614746e-01 -1.3197003863751888e-02</leafValues></_>
    <_>
      <internalNodes>
        0 -1 1454 7.9071033000946045e-01</internalNodes>
      <leafValues>
        7.2166919708251953e-02 -1.</leafValues></_>
    <_>
      <internalNodes>
        0 -1 175154 -3.3922763541340828e-03</internalNodes>
      <leafValues>
        -1. 1.1209055781364441e-01</leafValues></_>
    <_>
      <internalNodes>
        0 -1 223882 -1.6602016330580227e-05</internalNodes>
      <leafValues>
        1.3232216238975525e-01 -6.2074762582778931e-01</leafValues></_>
    <_>
      <internalNodes>
        0 -1 97822 -4.2879339307546616e-03</internalNodes>
      <leafValues>
        -8.5156929492950439e-01 1.2026049941778183e-01</leafValues></_>
    <_>
      <internalNodes>
        0 -1 191871 3.4559272229671478e-02</internalNodes>
      <leafValues>
        -3.3033251762390137e-01 3.5481750965118408e-01</leafValues></_></weakClassifiers></stage17>
</opencv_storage>
