<?xml version="1.0"?>
<opencv_storage>
<stage11>
  <maxWeakCount>7</maxWeakCount>
  <stageThreshold>-1.4862099885940552e+00</stageThreshold>
  <weakClassifiers>
    <_>
      <internalNodes>
        0 -1 158846 -7.6304450631141663e-02</internalNodes>
      <leafValues>
        3.3333334326744080e-01 -8.2320439815521240e-01</leafValues></_>
    <_>
      <internalNodes>
        0 -1 284964 -1.5495762636419386e-04</internalNodes>
      <leafValues>
        4.8734568059444427e-02 -7.5420928001403809e-01</leafValues></_>
    <_>
      <internalNodes>
        0 -1 276558 7.9603743506595492e-04</internalNodes>
      <leafValues>
        -5.6840246915817261e-01 2.7093511819839478e-01</leafValues></_>
    <_>
      <internalNodes>
        0 -1 161 2.5263085262849927e-05</internalNodes>
      <leafValues>
        -6.4098560810089111e-01 2.2809682786464691e-01</leafValues></_>
    <_>
      <internalNodes>
        0 -1 274681 -1.6902807401493192e-03</internalNodes>
      <leafValues>
        -7.6003354787826538e-01 2.0631372928619385e-01</leafValues></_>
    <_>
      <internalNodes>
        0 -1 280897 -5.3331698291003704e-04</internalNodes>
      <leafValues>
        -7.5957047939300537e-01 1.8574270606040955e-01</leafValues></_>
    <_>
      <internalNodes>
        0 -1 26147 1.1273240670561790e-03</internalNodes>
      <leafValues>
        2.0285636186599731e-01 -6.5921992063522339e-01</leafValues></_></weakClassifiers></stage11>
</opencv_storage>
