<?xml version="1.0"?>
<opencv_storage>
<stage2>
  <maxWeakCount>6</maxWeakCount>
  <stageThreshold>-1.2172273397445679e+00</stageThreshold>
  <weakClassifiers>
    <_>
      <internalNodes>
        0 -1 796197 4.8432424664497375e-03</internalNodes>
      <leafValues>
        -5.9210526943206787e-01 7.4193549156188965e-01</leafValues></_>
    <_>
      <internalNodes>
        0 -1 588378 -1.2409869581460953e-02</internalNodes>
      <leafValues>
        9.0782558917999268e-01 -3.6149564385414124e-01</leafValues></_>
    <_>
      <internalNodes>
        0 -1 40743 1.1046331928810105e-04</internalNodes>
      <leafValues>
        -7.9069232940673828e-01 3.6331850290298462e-01</leafValues></_>
    <_>
      <internalNodes>
        0 -1 1120721 -3.1692710763309151e-05</internalNodes>
      <leafValues>
        -6.6895800828933716e-01 3.2761922478675842e-01</leafValues></_>
    <_>
      <internalNodes>
        0 -1 655513 3.5358048044145107e-03</internalNodes>
      <leafValues>
        -3.3162891864776611e-01 7.6372373104095459e-01</leafValues></_>
    <_>
      <internalNodes>
        0 -1 1126050 -4.8833859182195738e-05</internalNodes>
      <leafValues>
        -7.8777152299880981e-01 3.7364190816879272e-01</leafValues></_></weakClassifiers></stage2>
</opencv_storage>
