<?xml version="1.0"?>
<opencv_storage>
<stage2>
  <maxWeakCount>5</maxWeakCount>
  <stageThreshold>-9.4422489404678345e-01</stageThreshold>
  <weakClassifiers>
    <_>
      <internalNodes>
        0 -1 94087 8.1158265471458435e-02</internalNodes>
      <leafValues>
        -7.0242214202880859e-01 3.0357143282890320e-01</leafValues></_>
    <_>
      <internalNodes>
        0 -1 95742 1.4892218634486198e-02</internalNodes>
      <leafValues>
        -3.3751511573791504e-01 8.3907341957092285e-01</leafValues></_>
    <_>
      <internalNodes>
        0 -1 95308 7.0974873378872871e-03</internalNodes>
      <leafValues>
        -3.2379356026649475e-01 6.9267487525939941e-01</leafValues></_>
    <_>
      <internalNodes>
        0 -1 160257 -5.4546471801586449e-05</internalNodes>
      <leafValues>
        -7.2282338142395020e-01 3.4707278013229370e-01</leafValues></_>
    <_>
      <internalNodes>
        0 -1 19568 -2.0624516764655709e-04</internalNodes>
      <leafValues>
        -9.4403535127639771e-01 2.3115175962448120e-01</leafValues></_></weakClassifiers></stage2>
</opencv_storage>
