<?xml version="1.0"?>
<opencv_storage>
<stage17>
  <maxWeakCount>7</maxWeakCount>
  <stageThreshold>-9.6263575553894043e-01</stageThreshold>
  <weakClassifiers>
    <_>
      <internalNodes>
        0 -1 1112504 4.8475281801074743e-05</internalNodes>
      <leafValues>
        -7.0297032594680786e-01 4.8780485987663269e-02</leafValues></_>
    <_>
      <internalNodes>
        0 -1 646157 -2.5910753756761551e-02</internalNodes>
      <leafValues>
        8.0286115407943726e-01 -2.5516587495803833e-01</leafValues></_>
    <_>
      <internalNodes>
        0 -1 1140593 4.6771274355705827e-05</internalNodes>
      <leafValues>
        -4.7400692105293274e-01 3.6018386483192444e-01</leafValues></_>
    <_>
      <internalNodes>
        0 -1 1016784 -3.4904063795693219e-04</internalNodes>
      <leafValues>
        -7.0745259523391724e-01 2.3510894179344177e-01</leafValues></_>
    <_>
      <internalNodes>
        0 -1 1143160 2.3373584554065019e-05</internalNodes>
      <leafValues>
        -5.8267176151275635e-01 3.1480538845062256e-01</leafValues></_>
    <_>
      <internalNodes>
        0 -1 753840 1.2819644325645640e-05</internalNodes>
      <leafValues>
        -4.4560852646827698e-01 3.8682970404624939e-01</leafValues></_>
    <_>
      <internalNodes>
        0 -1 822532 9.8981964401900768e-04</internalNodes>
      <leafValues>
        -3.6119383573532104e-01 4.7357228398323059e-01</leafValues></_></weakClassifiers></stage17>
</opencv_storage>
