<?xml version="1.0"?>
<opencv_storage>
<stage1>
  <maxWeakCount>5</maxWeakCount>
  <stageThreshold>-8.6695975065231323e-01</stageThreshold>
  <weakClassifiers>
    <_>
      <internalNodes>
        0 -1 1106685 -3.5360616166144609e-03</internalNodes>
      <leafValues>
        -9.3103450536727905e-01 4.5248870737850666e-03</leafValues></_>
    <_>
      <internalNodes>
        0 -1 1103591 1.1412247549742460e-03</internalNodes>
      <leafValues>
        1.8599565327167511e-01 -8.2174718379974365e-01</leafValues></_>
    <_>
      <internalNodes>
        0 -1 807749 2.9579773545265198e-03</internalNodes>
      <leafValues>
        2.9175794124603271e-01 -8.3385449647903442e-01</leafValues></_>
    <_>
      <internalNodes>
        0 -1 1528 -4.9124032258987427e-02</internalNodes>
      <leafValues>
        5.0121974945068359e-01 -5.2703219652175903e-01</leafValues></_>
    <_>
      <internalNodes>
        0 -1 1060032 2.3595021048095077e-05</internalNodes>
      <leafValues>
        3.2304793596267700e-01 -8.2220602035522461e-01</leafValues></_></weakClassifiers></stage1>
</opencv_storage>
