<?xml version="1.0"?>
<opencv_storage>
<stage0>
  <maxWeakCount>5</maxWeakCount>
  <stageThreshold>-1.4866943359375000e+00</stageThreshold>
  <weakClassifiers>
    <_>
      <internalNodes>
        0 -1 225823 -1.5560784935951233e-01</internalNodes>
      <leafValues>
        4.9593496322631836e-01 -8.2733815908432007e-01</leafValues></_>
    <_>
      <internalNodes>
        0 -1 172080 2.6405206881463528e-04</internalNodes>
      <leafValues>
        2.3108667135238647e-01 -8.7579047679901123e-01</leafValues></_>
    <_>
      <internalNodes>
        0 -1 245570 -4.2923493310809135e-04</internalNodes>
      <leafValues>
        3.8662707805633545e-01 -7.0390063524246216e-01</leafValues></_>
    <_>
      <internalNodes>
        0 -1 9770 -2.6945367455482483e-02</internalNodes>
      <leafValues>
        5.4199516773223877e-01 -5.8407026529312134e-01</leafValues></_>
    <_>
      <internalNodes>
        0 -1 149691 -3.8498212234117091e-04</internalNodes>
      <leafValues>
        4.1387745738029480e-01 -7.7578413486480713e-01</leafValues></_></weakClassifiers></stage0>
</opencv_storage>
