<?xml version="1.0"?>
<opencv_storage>
<stage3>
  <maxWeakCount>5</maxWeakCount>
  <stageThreshold>-1.4157726764678955e+00</stageThreshold>
  <weakClassifiers>
    <_>
      <internalNodes>
        0 -1 191797 3.2588355243206024e-02</internalNodes>
      <leafValues>
        -8.6148005723953247e-01 3.8709676265716553e-01</leafValues></_>
    <_>
      <internalNodes>
        0 -1 254268 3.6245264112949371e-02</internalNodes>
      <leafValues>
        -6.6970700025558472e-01 5.1912325620651245e-01</leafValues></_>
    <_>
      <internalNodes>
        0 -1 264144 6.0097360983490944e-03</internalNodes>
      <leafValues>
        2.1763254702091217e-01 -8.7394881248474121e-01</leafValues></_>
    <_>
      <internalNodes>
        0 -1 108699 3.5894073545932770e-02</internalNodes>
      <leafValues>
        -3.6155003309249878e-01 6.9992840290069580e-01</leafValues></_>
    <_>
      <internalNodes>
        0 -1 280390 3.4723908174782991e-04</internalNodes>
      <leafValues>
        2.8943485021591187e-01 -9.1050952672958374e-01</leafValues></_></weakClassifiers></stage3>
</opencv_storage>
