<?xml version="1.0"?>
<opencv_storage>
<stage6>
  <maxWeakCount>5</maxWeakCount>
  <stageThreshold>-7.8359854221343994e-01</stageThreshold>
  <weakClassifiers>
    <_>
      <internalNodes>
        0 -1 110408 -3.9089411497116089e-02</internalNodes>
      <leafValues>
        7.2727274894714355e-01 -5.6302523612976074e-01</leafValues></_>
    <_>
      <internalNodes>
        0 -1 84624 2.4487055838108063e-02</internalNodes>
      <leafValues>
        -4.0355738997459412e-01 6.2560135126113892e-01</leafValues></_>
    <_>
      <internalNodes>
        0 -1 161103 -3.7060468457639217e-04</internalNodes>
      <leafValues>
        -7.9600584506988525e-01 3.2846677303314209e-01</leafValues></_>
    <_>
      <internalNodes>
        0 -1 13298 -3.1132053118199110e-04</internalNodes>
      <leafValues>
        -8.5027045011520386e-01 2.4321463704109192e-01</leafValues></_>
    <_>
      <internalNodes>
        0 -1 95352 1.7278581857681274e-02</internalNodes>
      <leafValues>
        -3.2437103986740112e-01 7.4309313297271729e-01</leafValues></_></weakClassifiers></stage6>
</opencv_storage>
