<?xml version="1.0"?>
<opencv_storage>
<stage12>
  <maxWeakCount>6</maxWeakCount>
  <stageThreshold>-8.9969503879547119e-01</stageThreshold>
  <weakClassifiers>
    <_>
      <internalNodes>
        0 -1 2214 2.3041941225528717e-02</internalNodes>
      <leafValues>
        -5.2866244316101074e-01 6.1538463830947876e-01</leafValues></_>
    <_>
      <internalNodes>
        0 -1 23202 8.2023005234077573e-05</internalNodes>
      <leafValues>
        -5.5463260412216187e-01 3.1136527657508850e-01</leafValues></_>
    <_>
      <internalNodes>
        0 -1 465669 1.1023890692740679e-03</internalNodes>
      <leafValues>
        -3.8984295725822449e-01 5.3482741117477417e-01</leafValues></_>
    <_>
      <internalNodes>
        0 -1 136331 3.9032078348100185e-04</internalNodes>
      <leafValues>
        2.3073400557041168e-01 -8.8169282674789429e-01</leafValues></_>
    <_>
      <internalNodes>
        0 -1 225239 5.1440820097923279e-03</internalNodes>
      <leafValues>
        2.2946967184543610e-01 -7.3851728439331055e-01</leafValues></_>
    <_>
      <internalNodes>
        0 -1 348539 2.9448606073856354e-04</internalNodes>
      <leafValues>
        -5.6500220298767090e-01 4.2461591958999634e-01</leafValues></_></weakClassifiers></stage12>
</opencv_storage>
