<?xml version="1.0"?>
<opencv_storage>
<stage11>
  <maxWeakCount>6</maxWeakCount>
  <stageThreshold>-9.5306706428527832e-01</stageThreshold>
  <weakClassifiers>
    <_>
      <internalNodes>
        0 -1 108561 3.0023279786109924e-01</internalNodes>
      <leafValues>
        -6.7659574747085571e-01 1.9083969295024872e-01</leafValues></_>
    <_>
      <internalNodes>
        0 -1 860694 -7.3686649557203054e-05</internalNodes>
      <leafValues>
        -6.5149354934692383e-01 2.4788719415664673e-01</leafValues></_>
    <_>
      <internalNodes>
        0 -1 407633 -3.7557125091552734e-02</internalNodes>
      <leafValues>
        4.5263090729713440e-01 -3.8229316473007202e-01</leafValues></_>
    <_>
      <internalNodes>
        0 -1 1144880 -9.3850784469395876e-04</internalNodes>
      <leafValues>
        -8.9175599813461304e-01 2.6961597800254822e-01</leafValues></_>
    <_>
      <internalNodes>
        0 -1 618906 1.9658511504530907e-02</internalNodes>
      <leafValues>
        -3.3567214012145996e-01 7.4139362573623657e-01</leafValues></_>
    <_>
      <internalNodes>
        0 -1 924366 -1.3193436898291111e-02</internalNodes>
      <leafValues>
        -8.5136604309082031e-01 2.5043874979019165e-01</leafValues></_></weakClassifiers></stage11>
</opencv_storage>
