<?xml version="1.0"?>
<opencv_storage>
<stage7>
  <maxWeakCount>5</maxWeakCount>
  <stageThreshold>-7.3537230491638184e-01</stageThreshold>
  <weakClassifiers>
    <_>
      <internalNodes>
        0 -1 22587 7.2617121040821075e-02</internalNodes>
      <leafValues>
        -6.1755484342575073e-01 3.4146341681480408e-01</leafValues></_>
    <_>
      <internalNodes>
        0 -1 149201 1.3959968928247690e-03</internalNodes>
      <leafValues>
        2.7166858315467834e-01 -7.0174419879913330e-01</leafValues></_>
    <_>
      <internalNodes>
        0 -1 154968 -8.9687143918126822e-04</internalNodes>
      <leafValues>
        -9.3517136573791504e-01 1.9089508056640625e-01</leafValues></_>
    <_>
      <internalNodes>
        0 -1 121195 2.4033049703575671e-04</internalNodes>
      <leafValues>
        2.9966413974761963e-01 -6.1483108997344971e-01</leafValues></_>
    <_>
      <internalNodes>
        0 -1 27108 -1.8204527441412210e-03</internalNodes>
      <leafValues>
        -7.7375882863998413e-01 2.4602121114730835e-01</leafValues></_></weakClassifiers></stage7>
</opencv_storage>
