<?xml version="1.0"?>
<opencv_storage>
<stage16>
  <maxWeakCount>9</maxWeakCount>
  <stageThreshold>-1.4746716022491455e+00</stageThreshold>
  <weakClassifiers>
    <_>
      <internalNodes>
        0 -1 34748 5.7682730257511139e-02</internalNodes>
      <leafValues>
        -8.2641512155532837e-01 -1.4285714924335480e-01</leafValues></_>
    <_>
      <internalNodes>
        0 -1 287537 2.2676413209410384e-05</internalNodes>
      <leafValues>
        -6.7303115129470825e-01 -1.6264770179986954e-02</leafValues></_>
    <_>
      <internalNodes>
        0 -1 279459 -1.5190870908554643e-04</internalNodes>
      <leafValues>
        -5.3381723165512085e-01 1.7643304169178009e-01</leafValues></_>
    <_>
      <internalNodes>
        0 -1 196971 8.5584491491317749e-02</internalNodes>
      <leafValues>
        1.1616513878107071e-01 -8.1082463264465332e-01</leafValues></_>
    <_>
      <internalNodes>
        0 -1 233985 5.7651000097393990e-03</internalNodes>
      <leafValues>
        -4.1349154710769653e-01 2.8131079673767090e-01</leafValues></_>
    <_>
      <internalNodes>
        0 -1 256260 -8.2353577017784119e-02</internalNodes>
      <leafValues>
        7.2468787431716919e-01 -1.8517199158668518e-01</leafValues></_>
    <_>
      <internalNodes>
        0 -1 16518 2.7184307327843271e-05</internalNodes>
      <leafValues>
        -4.7992351651191711e-01 2.6590296626091003e-01</leafValues></_>
    <_>
      <internalNodes>
        0 -1 122084 4.0785586461424828e-03</internalNodes>
      <leafValues>
        1.0464916378259659e-01 -8.3665025234222412e-01</leafValues></_>
    <_>
      <internalNodes>
        0 -1 277482 -3.7196237826719880e-05</internalNodes>
      <leafValues>
        -4.6429109573364258e-01 2.1952097117900848e-01</leafValues></_></weakClassifiers></stage16>
</opencv_storage>
