<?xml version="1.0"?>
<opencv_storage>
<stage18>
  <maxWeakCount>9</maxWeakCount>
  <stageThreshold>-1.6873714923858643e+00</stageThreshold>
  <weakClassifiers>
    <_>
      <internalNodes>
        0 -1 186192 2.6829182170331478e-03</internalNodes>
      <leafValues>
        -8.6637461185455322e-01 -4.5812806487083435e-01</leafValues></_>
    <_>
      <internalNodes>
        0 -1 286106 3.1685305293649435e-04</internalNodes>
      <leafValues>
        -6.8201118707656860e-01 -4.9260392785072327e-02</leafValues></_>
    <_>
      <internalNodes>
        0 -1 99057 8.3805136382579803e-03</internalNodes>
      <leafValues>
        7.5907953083515167e-02 -8.9709424972534180e-01</leafValues></_>
    <_>
      <internalNodes>
        0 -1 215118 2.4883547666831873e-05</internalNodes>
      <leafValues>
        -3.6078786849975586e-01 3.1787154078483582e-01</leafValues></_>
    <_>
      <internalNodes>
        0 -1 269913 9.4903534045442939e-04</internalNodes>
      <leafValues>
        -2.9941961169242859e-01 3.7282708287239075e-01</leafValues></_>
    <_>
      <internalNodes>
        0 -1 287769 2.8676593501586467e-05</internalNodes>
      <leafValues>
        -3.6761638522148132e-01 2.7339777350425720e-01</leafValues></_>
    <_>
      <internalNodes>
        0 -1 201201 2.4466910399496555e-03</internalNodes>
      <leafValues>
        -1.7281943559646606e-01 5.6794071197509766e-01</leafValues></_>
    <_>
      <internalNodes>
        0 -1 185472 4.5771931763738394e-04</internalNodes>
      <leafValues>
        2.0743910968303680e-01 -5.7489830255508423e-01</leafValues></_>
    <_>
      <internalNodes>
        0 -1 193986 1.2728280853480101e-03</internalNodes>
      <leafValues>
        1.8713694810867310e-01 -5.8790194988250732e-01</leafValues></_></weakClassifiers></stage18>
</opencv_storage>
