<?xml version="1.0"?>
<opencv_storage>
<stage4>
  <maxWeakCount>6</maxWeakCount>
  <stageThreshold>-1.2913451194763184e+00</stageThreshold>
  <weakClassifiers>
    <_>
      <internalNodes>
        0 -1 86170 -3.4054987132549286e-02</internalNodes>
      <leafValues>
        8.5185188055038452e-01 -6.1959654092788696e-01</leafValues></_>
    <_>
      <internalNodes>
        0 -1 144369 -1.1428734287619591e-03</internalNodes>
      <leafValues>
        -8.3791291713714600e-01 2.4655139446258545e-01</leafValues></_>
    <_>
      <internalNodes>
        0 -1 148900 -9.7933656070381403e-04</internalNodes>
      <leafValues>
        -8.8462889194488525e-01 2.1003410220146179e-01</leafValues></_>
    <_>
      <internalNodes>
        0 -1 65729 1.3394484296441078e-02</internalNodes>
      <leafValues>
        -2.6950791478157043e-01 9.5707190036773682e-01</leafValues></_>
    <_>
      <internalNodes>
        0 -1 12250 4.1062658419832587e-04</internalNodes>
      <leafValues>
        -5.7523345947265625e-01 4.4129744172096252e-01</leafValues></_>
    <_>
      <internalNodes>
        0 -1 86194 -1.7697621136903763e-02</internalNodes>
      <leafValues>
        8.8850462436676025e-01 -2.8359267115592957e-01</leafValues></_></weakClassifiers></stage4>
</opencv_storage>
