<?xml version="1.0"?>
<opencv_storage>
<stage4>
  <maxWeakCount>6</maxWeakCount>
  <stageThreshold>-4.5104789733886719e-01</stageThreshold>
  <weakClassifiers>
    <_>
      <internalNodes>
        0 -1 713119 -3.9279468357563019e-02</internalNodes>
      <leafValues>
        8.3999997377395630e-01 -5.5696201324462891e-01</leafValues></_>
    <_>
      <internalNodes>
        0 -1 1059595 5.6294666137546301e-05</internalNodes>
      <leafValues>
        4.5958667993545532e-01 -6.2808465957641602e-01</leafValues></_>
    <_>
      <internalNodes>
        0 -1 590705 2.1502347663044930e-02</internalNodes>
      <leafValues>
        -6.2943404912948608e-01 5.1999068260192871e-01</leafValues></_>
    <_>
      <internalNodes>
        0 -1 982435 1.1527733295224607e-04</internalNodes>
      <leafValues>
        3.0184295773506165e-01 -8.9025771617889404e-01</leafValues></_>
    <_>
      <internalNodes>
        0 -1 11631 3.9051963540259749e-05</internalNodes>
      <leafValues>
        -7.1445351839065552e-01 3.6246880888938904e-01</leafValues></_>
    <_>
      <internalNodes>
        0 -1 375714 2.1122857928276062e-02</internalNodes>
      <leafValues>
        -3.4587433934211731e-01 8.5103005170822144e-01</leafValues></_></weakClassifiers></stage4>
</opencv_storage>
