<?xml version="1.0"?>
<opencv_storage>
<stage5>
  <maxWeakCount>5</maxWeakCount>
  <stageThreshold>-9.4261908531188965e-01</stageThreshold>
  <weakClassifiers>
    <_>
      <internalNodes>
        0 -1 237418 -7.8538194298744202e-02</internalNodes>
      <leafValues>
        1.1111111193895340e-01 -7.8242677450180054e-01</leafValues></_>
    <_>
      <internalNodes>
        0 -1 66232 -5.3963565733283758e-04</internalNodes>
      <leafValues>
        -9.6122997999191284e-01 2.1652096509933472e-01</leafValues></_>
    <_>
      <internalNodes>
        0 -1 250561 1.5627141692675650e-04</internalNodes>
      <leafValues>
        2.0108416676521301e-01 -8.5929727554321289e-01</leafValues></_>
    <_>
      <internalNodes>
        0 -1 37 -1.6108615091070533e-04</internalNodes>
      <leafValues>
        -7.6008623838424683e-01 3.0117195844650269e-01</leafValues></_>
    <_>
      <internalNodes>
        0 -1 212850 -3.3311323932139203e-05</internalNodes>
      <leafValues>
        3.4913238883018494e-01 -7.5231838226318359e-01</leafValues></_></weakClassifiers></stage5>
</opencv_storage>
