<?xml version="1.0"?>
<opencv_storage>
<stage0>
  <maxWeakCount>6</maxWeakCount>
  <stageThreshold>-1.5872377157211304e+00</stageThreshold>
  <weakClassifiers>
    <_>
      <internalNodes>
        0 -1 1315 5.5109322071075439e-01</internalNodes>
      <leafValues>
        -9.0342050790786743e-01 1.1475409567356110e-01</leafValues></_>
    <_>
      <internalNodes>
        0 -1 192530 -2.9548473656177521e-02</internalNodes>
      <leafValues>
        7.8377538919448853e-01 -5.7888454198837280e-01</leafValues></_>
    <_>
      <internalNodes>
        0 -1 274825 -5.7356422767043114e-03</internalNodes>
      <leafValues>
        -8.8909810781478882e-01 2.8530254960060120e-01</leafValues></_>
    <_>
      <internalNodes>
        0 -1 185661 1.8669871496967971e-04</internalNodes>
      <leafValues>
        2.9759517312049866e-01 -8.5135167837142944e-01</leafValues></_>
    <_>
      <internalNodes>
        0 -1 277538 -3.6587024806067348e-04</internalNodes>
      <leafValues>
        -9.0780031681060791e-01 2.4954174458980560e-01</leafValues></_>
    <_>
      <internalNodes>
        0 -1 82595 7.0867137983441353e-03</internalNodes>
      <leafValues>
        2.3702856898307800e-01 -8.5310524702072144e-01</leafValues></_></weakClassifiers></stage0>
</opencv_storage>
