<?xml version="1.0"?>
<opencv_storage>
<stage13>
  <maxWeakCount>7</maxWeakCount>
  <stageThreshold>-9.5788949728012085e-01</stageThreshold>
  <weakClassifiers>
    <_>
      <internalNodes>
        0 -1 155038 -5.7082692364929244e-05</internalNodes>
      <leafValues>
        -5.6497175246477127e-03 -7.5000000000000000e-01</leafValues></_>
    <_>
      <internalNodes>
        0 -1 155445 -3.4433949622325599e-05</internalNodes>
      <leafValues>
        2.5420036911964417e-01 -5.9588390588760376e-01</leafValues></_>
    <_>
      <internalNodes>
        0 -1 94618 1.7116111703217030e-03</internalNodes>
      <leafValues>
        -3.7107527256011963e-01 5.6691288948059082e-01</leafValues></_>
    <_>
      <internalNodes>
        0 -1 157757 3.7198980862740427e-05</internalNodes>
      <leafValues>
        -4.6264493465423584e-01 3.3728232979774475e-01</leafValues></_>
    <_>
      <internalNodes>
        0 -1 60428 1.5237429761327803e-04</internalNodes>
      <leafValues>
        -4.6773242950439453e-01 3.8239070773124695e-01</leafValues></_>
    <_>
      <internalNodes>
        0 -1 111497 -3.1352110207080841e-02</internalNodes>
      <leafValues>
        9.3749403953552246e-01 -1.7239680886268616e-01</leafValues></_>
    <_>
      <internalNodes>
        0 -1 25799 7.9199606552720070e-03</internalNodes>
      <leafValues>
        2.6740929484367371e-01 -8.3143836259841919e-01</leafValues></_></weakClassifiers></stage13>
</opencv_storage>
