<?xml version="1.0"?>
<opencv_storage>
<stage11>
  <maxWeakCount>5</maxWeakCount>
  <stageThreshold>-6.3194787502288818e-01</stageThreshold>
  <weakClassifiers>
    <_>
      <internalNodes>
        0 -1 37809 7.7822222374379635e-04</internalNodes>
      <leafValues>
        -7.8544062376022339e-01 2.5714287161827087e-01</leafValues></_>
    <_>
      <internalNodes>
        0 -1 20630 -7.8641772270202637e-02</internalNodes>
      <leafValues>
        4.9022442102432251e-01 -4.9561408162117004e-01</leafValues></_>
    <_>
      <internalNodes>
        0 -1 13176 2.9138511308701709e-05</internalNodes>
      <leafValues>
        -5.9014153480529785e-01 4.5837131142616272e-01</leafValues></_>
    <_>
      <internalNodes>
        0 -1 90703 7.4374816904310137e-05</internalNodes>
      <leafValues>
        -5.1285755634307861e-01 4.8382133245468140e-01</leafValues></_>
    <_>
      <internalNodes>
        0 -1 111464 3.9630969986319542e-03</internalNodes>
      <leafValues>
        -2.3041151463985443e-01 8.4402042627334595e-01</leafValues></_></weakClassifiers></stage11>
</opencv_storage>
