<?xml version="1.0"?>
<opencv_storage>
<stage2>
  <maxWeakCount>5</maxWeakCount>
  <stageThreshold>-1.4240419864654541e+00</stageThreshold>
  <weakClassifiers>
    <_>
      <internalNodes>
        0 -1 85988 -2.9474418610334396e-02</internalNodes>
      <leafValues>
        8.6046510934829712e-01 -5.7541900873184204e-01</leafValues></_>
    <_>
      <internalNodes>
        0 -1 104681 -2.9658256098628044e-03</internalNodes>
      <leafValues>
        -8.2498323917388916e-01 3.1923934817314148e-01</leafValues></_>
    <_>
      <internalNodes>
        0 -1 47920 -1.7211984959430993e-04</internalNodes>
      <leafValues>
        4.6224492788314819e-01 -6.0400885343551636e-01</leafValues></_>
    <_>
      <internalNodes>
        0 -1 52554 1.7885456327348948e-04</internalNodes>
      <leafValues>
        2.7343574166297913e-01 -9.8544609546661377e-01</leafValues></_>
    <_>
      <internalNodes>
        0 -1 10607 -1.2339701876044273e-02</internalNodes>
      <leafValues>
        3.0693337321281433e-01 -7.6332890987396240e-01</leafValues></_></weakClassifiers></stage2>
</opencv_storage>
