<?xml version="1.0"?>
<opencv_storage>
<stage14>
  <maxWeakCount>6</maxWeakCount>
  <stageThreshold>-7.9901355504989624e-01</stageThreshold>
  <weakClassifiers>
    <_>
      <internalNodes>
        0 -1 125068 -7.4146143160760403e-03</internalNodes>
      <leafValues>
        4.3999999761581421e-01 -5.4415953159332275e-01</leafValues></_>
    <_>
      <internalNodes>
        0 -1 487 6.5652641933411360e-04</internalNodes>
      <leafValues>
        -5.8151835203170776e-01 2.8127273917198181e-01</leafValues></_>
    <_>
      <internalNodes>
        0 -1 249827 -9.7643112530931830e-04</internalNodes>
      <leafValues>
        -8.4469723701477051e-01 1.7857566475868225e-01</leafValues></_>
    <_>
      <internalNodes>
        0 -1 77423 8.9105888037011027e-04</internalNodes>
      <leafValues>
        2.3228788375854492e-01 -6.3324642181396484e-01</leafValues></_>
    <_>
      <internalNodes>
        0 -1 22635 3.6000441759824753e-03</internalNodes>
      <leafValues>
        2.3360991477966309e-01 -6.9913697242736816e-01</leafValues></_>
    <_>
      <internalNodes>
        0 -1 123534 -7.1812838315963745e-02</internalNodes>
      <leafValues>
        7.3572182655334473e-01 -2.4785333871841431e-01</leafValues></_></weakClassifiers></stage14>
</opencv_storage>
