<?xml version="1.0"?>
<opencv_storage>
<stage10>
  <maxWeakCount>5</maxWeakCount>
  <stageThreshold>-9.4927227497100830e-01</stageThreshold>
  <weakClassifiers>
    <_>
      <internalNodes>
        0 -1 175674 -3.5754632204771042e-02</internalNodes>
      <leafValues>
        7.5000000000000000e-01 -5.5124652385711670e-01</leafValues></_>
    <_>
      <internalNodes>
        0 -1 69231 -3.3062772126868367e-04</internalNodes>
      <leafValues>
        2.3286500573158264e-01 -7.6676636934280396e-01</leafValues></_>
    <_>
      <internalNodes>
        0 -1 230437 2.1701878722524270e-05</internalNodes>
      <leafValues>
        -4.4421502947807312e-01 4.7555935382843018e-01</leafValues></_>
    <_>
      <internalNodes>
        0 -1 248406 -2.7252455765847117e-05</internalNodes>
      <leafValues>
        4.3188413977622986e-01 -4.3811663985252380e-01</leafValues></_>
    <_>
      <internalNodes>
        0 -1 16473 1.2343457456154283e-05</internalNodes>
      <leafValues>
        -5.3616654872894287e-01 3.8107153773307800e-01</leafValues></_></weakClassifiers></stage10>
</opencv_storage>
