<?xml version="1.0"?>
<opencv_storage>
<stage13>
  <maxWeakCount>6</maxWeakCount>
  <stageThreshold>-1.2361860275268555e+00</stageThreshold>
  <weakClassifiers>
    <_>
      <internalNodes>
        0 -1 252012 -3.1586358090862632e-04</internalNodes>
      <leafValues>
        -7.1770332753658295e-02 -8.0208331346511841e-01</leafValues></_>
    <_>
      <internalNodes>
        0 -1 251862 -1.4311440754681826e-03</internalNodes>
      <leafValues>
        1.9563220441341400e-01 -7.3665875196456909e-01</leafValues></_>
    <_>
      <internalNodes>
        0 -1 235394 -3.0411487387027591e-05</internalNodes>
      <leafValues>
        2.2139202058315277e-01 -8.1145209074020386e-01</leafValues></_>
    <_>
      <internalNodes>
        0 -1 6935 -2.1692124009132385e-01</internalNodes>
      <leafValues>
        4.6968269348144531e-01 -3.9573130011558533e-01</leafValues></_>
    <_>
      <internalNodes>
        0 -1 244206 -9.2279457021504641e-05</internalNodes>
      <leafValues>
        3.5689893364906311e-01 -5.1389354467391968e-01</leafValues></_>
    <_>
      <internalNodes>
        0 -1 180378 3.0423208954744041e-04</internalNodes>
      <leafValues>
        2.2592800855636597e-01 -8.1420046091079712e-01</leafValues></_></weakClassifiers></stage13>
</opencv_storage>
